encog,BasicNetwork,java,3.3.0,1,1479847539705
[BASIC]
[BASIC:PARAMS]
[BASIC:NETWORK]
beginTraining=0
connectionLimit=0
contextTargetOffset=0,0,0
contextTargetSize=0,0,0
endTraining=2
hasContext=f
inputCount=22
layerCounts=1,31,23
layerFeedCounts=1,30,22
layerContextCount=0,0,0
layerIndex=0,1,32
output=0,0,0,0,0,0,0,0,0,0,0,0,0,0,0,0,0,0,0,0,0,0,0,0,0,0,0,0,0,0,0,1,0,0,0,0,0,0,0,0,0,0,0,0,0,0,0,0,0,0,0,0,0,0,1
outputCount=1
weightIndex=0,31,721
weights=0.3127816545,0.3127816545,0.3127816545,0.3127816545,0.3127816545,0.3127816545,0.3127816545,0.3127816545,0.3127816545,0.3127816545,0.3127816545,0.3127816545,0.3127816545,0.3127816545,0.3127816545,0.3127816545,0.3127816545,0.3127816545,0.3127816545,0.3127816545,0.3127816545,0.3127816545,0.3127816545,0.3127816545,0.3127816545,0.3127816545,0.3127816545,0.3127816545,0.3127816545,0.3127816545,-0.781979165,-0.7840536968,-0.715681879,-0.715681879,-0.715681879,-0.715681879,-0.715681879,-0.6382851738,-15.7739999685,-15.7739999685,-8.1197916503,-0.0415392922,0.9842822758,15.5739999685,0.6495809544,-15.7739999685,-15.7739999685,-15.7739999685,-15.7739999685,-0.4609177242,-0.6382851738,-0.715681879,-0.715681879,-0.715681879,-0.7840536968,-0.715681879,-0.715681879,-0.715681879,-0.715681879,-0.715681879,-0.6382851738,-15.7739999685,-15.7739999685,-8.1197916503,-0.0415392922,0.9842822758,15.5739999685,0.6495809544,-15.7739999685,-15.7739999685,-15.7739999685,-15.7739999685,-0.4609177242,-0.6382851738,-0.715681879,-0.715681879,-0.715681879,-0.7840536968,-0.715681879,-0.715681879,-0.715681879,-0.715681879,-0.715681879,-0.6382851738,-15.7739999685,-15.7739999685,-8.1197916503,-0.0415392922,0.9842822758,15.5739999685,0.6495809544,-15.7739999685,-15.7739999685,-15.7739999685,-15.7739999685,-0.4609177242,-0.6382851738,-0.715681879,-0.715681879,-0.715681879,-0.7840536968,-0.715681879,-0.715681879,-0.715681879,-0.715681879,-0.715681879,-0.6382851738,-15.7739999685,-15.7739999685,-8.1197916503,-0.0415392922,0.9842822758,15.5739999685,0.6495809544,-15.7739999685,-15.7739999685,-15.7739999685,-15.7739999685,-0.4609177242,-0.6382851738,-0.715681879,-0.715681879,-0.715681879,-0.7840536968,-0.715681879,-0.715681879,-0.715681879,-0.715681879,-0.715681879,-0.6382851738,-15.7739999685,-15.7739999685,-8.1197916503,-0.0415392922,0.9842822758,15.5739999685,0.6495809544,-15.7739999685,-15.7739999685,-15.7739999685,-15.7739999685,-0.4609177242,-0.6382851738,-0.715681879,-0.715681879,-0.715681879,-0.7840536968,-0.715681879,-0.715681879,-0.715681879,-0.715681879,-0.715681879,-0.6382851738,-15.7739999685,-15.7739999685,-8.1197916503,-0.0415392922,0.9842822758,15.5739999685,0.6495809544,-15.7739999685,-15.7739999685,-15.7739999685,-15.7739999685,-0.4609177242,-0.6382851738,-0.715681879,-0.715681879,-0.715681879,-0.7840536968,-0.715681879,-0.715681879,-0.715681879,-0.715681879,-0.715681879,-0.6382851738,-15.7739999685,-15.7739999685,-8.1197916503,-0.0415392922,0.9842822758,15.5739999685,0.6495809544,-15.7739999685,-15.7739999685,-15.7739999685,-15.7739999685,-0.4609177242,-0.6382851738,-0.715681879,-0.715681879,-0.715681879,-0.7840536968,-0.715681879,-0.715681879,-0.715681879,-0.715681879,-0.715681879,-0.6382851738,-15.7739999685,-15.7739999685,-8.1197916503,-0.0415392922,0.9842822758,15.5739999685,0.6495809544,-15.7739999685,-15.7739999685,-15.7739999685,-15.7739999685,-0.4609177242,-0.6382851738,-0.715681879,-0.715681879,-0.715681879,-0.7840536968,-0.715681879,-0.715681879,-0.715681879,-0.715681879,-0.715681879,-0.6382851738,-15.7739999685,-15.7739999685,-8.1197916503,-0.0415392922,0.9842822758,15.5739999685,0.6495809544,-15.7739999685,-15.7739999685,-15.7739999685,-15.7739999685,-0.4609177242,-0.6382851738,-0.715681879,-0.715681879,-0.715681879,-0.7840536968,-0.715681879,-0.715681879,-0.715681879,-0.715681879,-0.715681879,-0.6382851738,-15.7739999685,-15.7739999685,-8.1197916503,-0.0415392922,0.9842822758,15.5739999685,0.6495809544,-15.7739999685,-15.7739999685,-15.7739999685,-15.7739999685,-0.4609177242,-0.6382851738,-0.715681879,-0.715681879,-0.715681879,-0.7840536968,-0.715681879,-0.715681879,-0.715681879,-0.715681879,-0.715681879,-0.6382851738,-15.7739999685,-15.7739999685,-8.1197916503,-0.0415392922,0.9842822758,15.5739999685,0.6495809544,-15.7739999685,-15.7739999685,-15.7739999685,-15.7739999685,-0.4609177242,-0.6382851738,-0.715681879,-0.715681879,-0.715681879,-0.7840536968,-0.715681879,-0.715681879,-0.715681879,-0.715681879,-0.715681879,-0.6382851738,-15.7739999685,-15.7739999685,-8.1197916503,-0.0415392922,0.9842822758,15.5739999685,0.6495809544,-15.7739999685,-15.7739999685,-15.7739999685,-15.7739999685,-0.4609177242,-0.6382851738,-0.715681879,-0.715681879,-0.715681879,-0.7840536968,-0.715681879,-0.715681879,-0.715681879,-0.715681879,-0.715681879,-0.6382851738,-15.7739999685,-15.7739999685,-8.1197916503,-0.0415392922,0.9842822758,15.5739999685,0.6495809544,-15.7739999685,-15.7739999685,-15.7739999685,-15.7739999685,-0.4609177242,-0.6382851738,-0.715681879,-0.715681879,-0.715681879,-0.7840536968,-0.715681879,-0.715681879,-0.715681879,-0.715681879,-0.715681879,-0.6382851738,-15.7739999685,-15.7739999685,-8.1197916503,-0.0415392922,0.9842822758,15.5739999685,0.6495809544,-15.7739999685,-15.7739999685,-15.7739999685,-15.7739999685,-0.4609177242,-0.6382851738,-0.715681879,-0.715681879,-0.715681879,-0.7840536968,-0.715681879,-0.715681879,-0.715681879,-0.715681879,-0.715681879,-0.6382851738,-15.7739999685,-15.7739999685,-8.1197916503,-0.0415392922,0.9842822758,15.5739999685,0.6495809544,-15.7739999685,-15.7739999685,-15.7739999685,-15.7739999685,-0.4609177242,-0.6382851738,-0.715681879,-0.715681879,-0.715681879,-0.7840536968,-0.715681879,-0.715681879,-0.715681879,-0.715681879,-0.715681879,-0.6382851738,-15.7739999685,-15.7739999685,-8.1197916503,-0.0415392922,0.9842822758,15.5739999685,0.6495809544,-15.7739999685,-15.7739999685,-15.7739999685,-15.7739999685,-0.4609177242,-0.6382851738,-0.715681879,-0.715681879,-0.715681879,-0.7840536968,-0.715681879,-0.715681879,-0.715681879,-0.715681879,-0.715681879,-0.6382851738,-15.7739999685,-15.7739999685,-8.1197916503,-0.0415392922,0.9842822758,15.5739999685,0.6495809544,-15.7739999685,-15.7739999685,-15.7739999685,-15.7739999685,-0.4609177242,-0.6382851738,-0.715681879,-0.715681879,-0.715681879,-0.7840536968,-0.715681879,-0.715681879,-0.715681879,-0.715681879,-0.715681879,-0.6382851738,-15.7739999685,-15.7739999685,-8.1197916503,-0.0415392922,0.9842822758,15.5739999685,0.6495809544,-15.7739999685,-15.7739999685,-15.7739999685,-15.7739999685,-0.4609177242,-0.6382851738,-0.715681879,-0.715681879,-0.715681879,-0.7840536968,-0.715681879,-0.715681879,-0.715681879,-0.715681879,-0.715681879,-0.6382851738,-15.7739999685,-15.7739999685,-8.1197916503,-0.0415392922,0.9842822758,15.5739999685,0.6495809544,-15.7739999685,-15.7739999685,-15.7739999685,-15.7739999685,-0.4609177242,-0.6382851738,-0.715681879,-0.715681879,-0.715681879,-0.7840536968,-0.715681879,-0.715681879,-0.715681879,-0.715681879,-0.715681879,-0.6382851738,-15.7739999685,-15.7739999685,-8.1197916503,-0.0415392922,0.9842822758,15.5739999685,0.6495809544,-15.7739999685,-15.7739999685,-15.7739999685,-15.7739999685,-0.4609177242,-0.6382851738,-0.715681879,-0.715681879,-0.715681879,-0.7840536968,-0.715681879,-0.715681879,-0.715681879,-0.715681879,-0.715681879,-0.6382851738,-15.7739999685,-15.7739999685,-8.1197916503,-0.0415392922,0.9842822758,15.5739999685,0.6495809544,-15.7739999685,-15.7739999685,-15.7739999685,-15.7739999685,-0.4609177242,-0.6382851738,-0.715681879,-0.715681879,-0.715681879,-0.7840536968,-0.715681879,-0.715681879,-0.715681879,-0.715681879,-0.715681879,-0.6382851738,-15.7739999685,-15.7739999685,-8.1197916503,-0.0415392922,0.9842822758,15.5739999685,0.6495809544,-15.7739999685,-15.7739999685,-15.7739999685,-15.7739999685,-0.4609177242,-0.6382851738,-0.715681879,-0.715681879,-0.715681879,-0.7840536968,-0.715681879,-0.715681879,-0.715681879,-0.715681879,-0.715681879,-0.6382851738,-15.7739999685,-15.7739999685,-8.1197916503,-0.0415392922,0.9842822758,15.5739999685,0.6495809544,-15.7739999685,-15.7739999685,-15.7739999685,-15.7739999685,-0.4609177242,-0.6382851738,-0.715681879,-0.715681879,-0.715681879,-0.7840536968,-0.715681879,-0.715681879,-0.715681879,-0.715681879,-0.715681879,-0.6382851738,-15.7739999685,-15.7739999685,-8.1197916503,-0.0415392922,0.9842822758,15.5739999685,0.6495809544,-15.7739999685,-15.7739999685,-15.7739999685,-15.7739999685,-0.4609177242,-0.6382851738,-0.715681879,-0.715681879,-0.715681879,-0.7840536968,-0.715681879,-0.715681879,-0.715681879,-0.715681879,-0.715681879,-0.6382851738,-15.7739999685,-15.7739999685,-8.1197916503,-0.0415392922,0.9842822758,15.5739999685,0.6495809544,-15.7739999685,-15.7739999685,-15.7739999685,-15.7739999685,-0.4609177242,-0.6382851738,-0.715681879,-0.715681879,-0.715681879,-0.7840536968,-0.715681879,-0.715681879,-0.715681879,-0.715681879,-0.715681879,-0.6382851738,-15.7739999685,-15.7739999685,-8.1197916503,-0.0415392922,0.9842822758,15.5739999685,0.6495809544,-15.7739999685,-15.7739999685,-15.7739999685,-15.7739999685,-0.4609177242,-0.6382851738,-0.715681879,-0.715681879,-0.715681879,-0.7840536968,-0.715681879,-0.715681879,-0.715681879,-0.715681879,-0.715681879,-0.6382851738,-15.7739999685,-15.7739999685,-8.1197916503,-0.0415392922,0.9842822758,15.5739999685,0.6495809544,-15.7739999685,-15.7739999685,-15.7739999685,-15.7739999685,-0.4609177242,-0.6382851738,-0.715681879,-0.715681879,-0.715681879,-0.7840536968,-0.715681879,-0.715681879,-0.715681879,-0.715681879,-0.715681879,-0.6382851738,-15.7739999685,-15.7739999685,-8.1197916503,-0.0415392922,0.9842822758,15.5739999685,0.6495809544,-15.7739999685,-15.7739999685,-15.7739999685,-15.7739999685,-0.4609177242,-0.6382851738,-0.715681879,-0.715681879,-0.715681879,-0.7840536968,-0.715681879,-0.715681879,-0.715681879,-0.715681879,-0.715681879,-0.6382851738,-15.7739999685,-15.7739999685,-8.1197916503,-0.0415392922,0.9842822758,15.5739999685,0.6495809544,-15.7739999685,-15.7739999685,-15.7739999685,-15.7739999685,-0.4609177242,-0.6382851738,-0.715681879,-0.715681879,-0.715681879,-0.7840536968,-0.715681879,-0.715681879,-0.715681879,-0.715681879,-0.715681879,-0.6382851738,-15.7739999685,-15.7739999685,-8.1197916503,-0.0415392922,0.9842822758,15.5739999685,0.6495809544,-15.7739999685,-15.7739999685,-15.7739999685,-15.7739999685,-0.4609177242,-0.6382851738,-0.715681879,-0.715681879,-0.715681879
biasActivation=0,1,1
[BASIC:ACTIVATION]
"org.encog.engine.network.activation.ActivationSigmoid"
"org.encog.engine.network.activation.ActivationSigmoid"
"org.encog.engine.network.activation.ActivationLinear"
