encog,BasicNetwork,java,3.3.0,1,1480251119818
[BASIC]
[BASIC:PARAMS]
[BASIC:NETWORK]
beginTraining=0
connectionLimit=0
contextTargetOffset=0,0,0
contextTargetSize=0,0,0
endTraining=2
hasContext=f
inputCount=8
layerCounts=1,31,9
layerFeedCounts=1,30,8
layerContextCount=0,0,0
layerIndex=0,1,32
output=0,0,0,0,0,0,0,0,0,0,0,0,0,0,0,0,0,0,0,0,0,0,0,0,0,0,0,0,0,0,0,1,0,0,0,0,0,0,0,0,1
outputCount=1
weightIndex=0,31,301
weights=-0.4197100514,22.2802522501,97.5024418745,-28.7257240477,-23.3709972796,4.3506363843,-1.1931845764,28.9859253821,13713.5236542051,3.9637034316,3.5417704002,1.7203667407,1.5472909306,-20.044140234,1.6755090889,-42.5732150569,7.9349782951,-1.2868462867,-2.8779954579,7.0586914744,-0.5022223475,14.7403972268,19.7552917294,31638.2186798369,-4.4709286764,-0.6853384305,-0.1094069801,9.1629774056,21209.625964017,-1.1833680117,0.5241349611,3941.513170335,5008.3011527429,1.0099865374,33861.6189347799,-135.9270723639,8563.5784879837,1850.6947607108,88809.2423575541,0.5881807251,-9.0777416045,1.2247999428,1.244238191,27.8760168683,1.3805561443,3.6428880849,-29.3879872706,47.3175357559,1.9185479592,-3.4378258746,-0.0244849059,-0.8810704393,-6.5598449531,-28.7579518838,-2.1468048784,0.8024482304,1.7346251176,0.5102133688,3.5369506555,0.9166103171,-2.7149615886,-2.1655398198,-1.7491318151,0.7953419611,-15.1493232461,6.2640442617,-1.5050780223,-1.5109060208,3.6080917153,0.6393512286,-4.6115831468,-3.4161867007,3.1308047657,-1.1834549521,-110.9347994417,-0.4579043181,-1.488142384,0.1244717514,-0.3825116443,10.8881968625,15.1258138348,1.0496807533,-0.4921412276,-30.4258458703,0.9294231905,2.3009664012,12.7868381365,-5.3693522604,-15.0410077342,6.1705732629,4.3785271586,3.8062713397,161.7458661758,-0.1243482958,-2.4433731346,0.3778391181,-0.0362356692,-0.0299918306,-9.1923681519,1.5677871349,-1.1273293567,-1.8002660558,0.6885746381,-4.0007035945,-1829.8208377143,1.5928598849,-34017.8551645765,150.4755413448,-20.5166798719,-2.0056718627,-84880.9373632813,0.0476416931,-3.5087916377,-0.360561036,1.8369901244,-2.2805578242,1.0886597426,2.4992951515,9.8364336634,3.7950088487,0.4349456595,-5243.8181113404,-4299.0162817019,0.0105960631,-33687.2293869363,133.7836526834,-9205.7944205701,-1295.7522217544,-88808.2242991566,-1.0777552632,-25.9902003439,6.4240792449,18.6326839058,1557.1312500169,-14.0778624902,-4.2079486296,-2.2167397911,-18733.5775475291,4.3331394236,-3941.6867009137,-3975.7778232329,0.5186536136,-34016.6836761679,131.2308629953,-8563.1029629936,-942.5117166494,-88808.324557705,-0.133109693,-1.8307937939,0.6591399019,-0.5989581723,-14.22878055,-12.8404974342,0.1382764364,-4.190856605,-5.8061733448,-0.1960826978,3.3618943113,88.8834352026,10.6326790646,-36.9304292108,-379.7807821031,-1044.9055371869,-1.1597392475,-539.9737156863,-0.8573773897,-5.572870873,-1.2365353169,0.8605237923,112.7458493398,3.1805513018,-16.6889363412,8.1331551459,101.8384942375,0.8909047447,-3.3089138442,1.6046226106,0.2651221181,31.741544179,4.8268732228,2.7566454801,1.4922868418,-21.1756730969,0.4996822203,957.4433284619,3353.122673794,-0.157485692,34069.1344130893,-316.0951937825,2255.9378569854,2.0377105033,87998.4236467463,0.0866146286,-1.3573578179,27.6216597087,-2.4097013034,530.6428716506,-1218.8508183176,-270.8207557396,15.8067213978,-47.516547231,-7.0078300585,-4.5524546386,5.7565361733,0.75441014,-44.0663265524,25.4396978828,-0.8963576289,-14.8190460931,108.3129265282,0.9141937818,1835.7869190858,3526.5420237019,0.4484049992,34007.319175464,-137.8557873951,3055.8707074854,28.0412468859,81833.6680501229,-0.2185956711,-3942.744837599,-3974.9221782944,-0.6236766265,-33962.8086604323,133.6422052866,-7641.0256675146,-637.0699725109,-87126.2211267771,-0.0417239384,-3.0231479478,0.7750599393,-0.8916596568,-8.0868192609,-1.885203555,2.1311440871,-0.9213698016,-1.1063370685,0.7485272184,-2.3765244675,0.5034549602,0.2757479248,-16465.7687556374,0.1915899845,0.2331084385,-66.9088605727,-228.4776715394,-0.4447387835,1.9976476272,1.9190123138,-1.5192591938,-140.8671719382,-41.9543320354,30.039186488,-42.4483307677,76.7156183135,-2.7856109831,3940.5200512995,3634.688476139,0.9265581485,34001.9574981969,-136.3264787968,8561.8906491028,636.3419252083,88381.5323515192,0.7877432752,1854.8055449021,3443.6012797196,0.9286687183,34016.0641002982,-135.6426313765,5988.7055413441,5.2971729326,88808.2211843225,-0.3721980492,-0.5123063303,-1.8417821154,4.0977427935,21.0277869432,32.5298908713,-2.1596869027,-5.8472604915,-54.1062873771,1.194017095,-318.4612485031,-3354.079501484,-0.9161876894,-34018.6172370626,135.9270111584,-6800.9829863626,-11.0966549339,-81820.3955569485,0.6162624791,3.3164825344,-3.3199365563,-0.1210995575,-12.8110253213,-39.6129052443,14.6875843402,0.5161895028,43.7427092991,-0.2028026264
biasActivation=0,1,1
[BASIC:ACTIVATION]
"org.encog.engine.network.activation.ActivationSigmoid"
"org.encog.engine.network.activation.ActivationSigmoid"
"org.encog.engine.network.activation.ActivationLinear"
