encog,BasicNetwork,java,3.3.0,1,1480886943708
[BASIC]
[BASIC:PARAMS]
[BASIC:NETWORK]
beginTraining=0
connectionLimit=0
contextTargetOffset=0,0,0
contextTargetSize=0,0,0
endTraining=2
hasContext=f
inputCount=4
layerCounts=1,41,5
layerFeedCounts=1,40,4
layerContextCount=0,0,0
layerIndex=0,1,42
output=0,0,0,0,0,0,0,0,0,0,0,0,0,0,0,0,0,0,0,0,0,0,0,0,0,0,0,0,0,0,0,0,0,0,0,0,0,0,0,0,0,1,0,0,0,0,1
outputCount=1
weightIndex=0,41,241
weights=-0.3968906979,-0.1914980022,0.8020467037,-0.4842115433,48.2375285122,0.491679641,0.7990763476,2.7534323677,3.7834466388,-1.3622143372,0.8512577053,-0.401252409,0.9791337065,0.5953646619,0.1132077495,1.3720152267,3.1310875566,-0.0655241505,0.9724971869,-0.6800717955,14.0892237514,0.9669101093,-1.9761329585,3.6400793642,-0.2335091491,-0.7377103447,11.8601784545,-0.582981883,-1.367377756,0.7439376182,46.3117300711,40.7356026952,3.1661788571,24.2769678559,0.6990829608,0.5074268734,0.4723188382,1.1207360594,0.8131210781,-0.2066481823,-0.2264107146,14.4471610209,-0.0423782247,0.2153476772,3180.2536548921,-6.7879884015,40.6488811466,-0.4402552908,0.7868358373,3181.067853582,-3.4523836713,-39.6824939455,-0.2113384979,0.7668692166,-3180.5085027916,0.8957830984,14.0542187147,0.4785658602,0.1764878594,3181.6258363792,-0.3403075231,-13.8945403218,0.0965991024,0.9285772246,-2786.9207260713,1.314264918,-15.2353355128,0.2633885677,-0.0390020385,-3181.4323492506,-0.1977946081,-41.2412076577,-0.616137747,0.972211641,-3181.8630120901,-0.051001431,-0.0991038827,-2.002120955,28.8639414984,0.1843576136,1.32899537,-14.9319470309,0.4868509349,0.6338429522,-3181.1383588058,3.0884756716,0.4693821353,-0.0045486046,-0.0988733749,-0.0280239754,-15.5501275819,-13.8071426272,-0.967011783,-0.3338687565,-3180.1126213543,1.9191599576,0.5183549802,-0.0440019574,0.5317544202,1787.7001067617,-35.406865234,-41.7290002615,0.7320030363,0.4647732584,-3181.6345568631,1.7401647335,0.1311196134,-2.3848981415,3.5003736821,-288.1271679983,34.8857251431,-15.0339878861,0.6404773714,-0.414894157,-3552.8854601647,2.1433241985,-2.2811434967,0.6532081077,-0.7520172464,-1789.0177405759,-0.0755909662,0.1128302671,-24.5147197036,0.5079633384,-100.4737652176,11.2921521253,14.8311130181,1.238742421,-0.0122806127,3180.674454609,-0.8716867158,-4.5576068725,-0.6237763987,-0.5587348595,-2459.5392363042,21.8019090515,0.119866154,0.6176696544,-0.7586279628,1163.9720055959,-21.3127809541,-14.503530169,-0.4879163732,0.0768080467,-3181.7697461371,-0.2362523408,-15.3791361757,-0.7445362047,-0.3853197806,-3180.7880725567,-0.3449104113,-0.0763554337,1.0567747273,-0.3306499213,1.0955757535,-39.254860754,-0.3643380756,-0.030211444,0.0080361995,-0.0043397121,28.3014138612,15.178745361,0.9183967633,-0.5267685274,3181.1526662991,-1.5158415342,14.2004649289,1.1722195677,0.4578115393,3180.7876796933,0.1574316256,-4.8051914768,0.1459142339,0.8249411291,-2460.5854674187,6.1556083782,40.8595491507,-0.7399625836,0.4999277132,3554.5152086649,-3.0888670747,0.9013965585,-0.1770874885,-0.5458291364,-0.4932765693,-17.6046408536,-0.4034619473,0.0920129272,-0.6952670178,-2460.1485524302,2.520672797,-0.7915204258,-1.4735429753,0.3968889691,-34.259048884,10.8954538269,-15.0529968223,0.1364425877,0.4725372886,-3181.0952457488,1.1803820833,-14.5486829802,-0.1889942695,-0.4685001226,-3181.606493466,-0.1653307982,-41.4380691799,-0.4262307322,0.0262065191,-3554.944367556,1.0122581906,-5.2265193518,0.2664983937,-0.091274689,-2787.2251109662,0.2714945874,-14.4769757282,-0.8895628376,0.6271438879,-3181.1921747017,9.546618674,-40.8029001312,-1.1419315937,-0.4439949193,-3181.2161543096,1.9762619624,-13.4670176438,-0.2874038144,-0.5964431718,-3554.7246790753,1.7797153283,0.1739600964,0.2915656709,-0.3926979348,-0.4456503016,32.5072970216,14.1142732193,0.6475221071,0.448135797,3181.2258021252,0.3270207841
biasActivation=0,1,1
[BASIC:ACTIVATION]
"org.encog.engine.network.activation.ActivationSigmoid"
"org.encog.engine.network.activation.ActivationSigmoid"
"org.encog.engine.network.activation.ActivationLinear"
