encog,BasicNetwork,java,3.3.0,1,1479759273919
[BASIC]
[BASIC:PARAMS]
[BASIC:NETWORK]
beginTraining=0
connectionLimit=0
contextTargetOffset=0,0,0
contextTargetSize=0,0,0
endTraining=2
hasContext=f
inputCount=22
layerCounts=1,31,23
layerFeedCounts=1,30,22
layerContextCount=0,0,0
layerIndex=0,1,32
output=0,0,0,0,0,0,0,0,0,0,0,0,0,0,0,0,0,0,0,0,0,0,0,0,0,0,0,0,0,0,0,1,0,0,0,0,0,0,0,0,0,0,0,0,0,0,0,0,0,0,0,0,0,0,1
outputCount=1
weightIndex=0,31,721
weights=2.7234601972,2.7234601972,2.7234601972,2.7234601972,2.7234601972,2.7234601972,2.7234601972,2.7234601972,2.7234601972,2.7234601972,2.7234601972,2.7234601972,2.7234601972,2.7234601972,2.7234601972,2.7234601972,2.7234601972,2.7234601972,2.7234601972,2.7234601972,2.7234601972,2.7234601972,2.7234601972,2.7234601972,2.7234601972,2.7234601972,2.7234601972,2.7234601972,2.7234601972,2.7234601972,-15.7110673586,-7.4834251738,-1.4469072538,0.3281922985,0.1694264463,-0.2540360998,-0.3515772161,-0.6601494451,1.7503127808,-0.3749905352,-9.3652451297,5.1594477311,2.6297130043,9.3050792927,0.077714582,0.8091147594,1.6298244156,0.0649725294,-0.1052366751,0.0215873265,0.0008815021,0.0460051449,1.8578147558,-0.4718044269,-7.4834251738,-1.4469072538,0.3281922985,0.1694264463,-0.2540360998,-0.3515772161,-0.6601494451,1.7503127808,-0.3749905352,-9.3652451297,5.1594477311,2.6297130043,9.3050792927,0.077714582,0.8091147594,1.6298244156,0.0649725294,-0.1052366751,0.0215873265,0.0008815021,0.0460051449,1.8578147558,-0.4718044269,-7.4834251738,-1.4469072538,0.3281922985,0.1694264463,-0.2540360998,-0.3515772161,-0.6601494451,1.7503127808,-0.3749905352,-9.3652451297,5.1594477311,2.6297130043,9.3050792927,0.077714582,0.8091147594,1.6298244156,0.0649725294,-0.1052366751,0.0215873265,0.0008815021,0.0460051449,1.8578147558,-0.4718044269,-7.4834251738,-1.4469072538,0.3281922985,0.1694264463,-0.2540360998,-0.3515772161,-0.6601494451,1.7503127808,-0.3749905352,-9.3652451297,5.1594477311,2.6297130043,9.3050792927,0.077714582,0.8091147594,1.6298244156,0.0649725294,-0.1052366751,0.0215873265,0.0008815021,0.0460051449,1.8578147558,-0.4718044269,-7.4834251738,-1.4469072538,0.3281922985,0.1694264463,-0.2540360998,-0.3515772161,-0.6601494451,1.7503127808,-0.3749905352,-9.3652451297,5.1594477311,2.6297130043,9.3050792927,0.077714582,0.8091147594,1.6298244156,0.0649725294,-0.1052366751,0.0215873265,0.0008815021,0.0460051449,1.8578147558,-0.4718044269,-7.4834251738,-1.4469072538,0.3281922985,0.1694264463,-0.2540360998,-0.3515772161,-0.6601494451,1.7503127808,-0.3749905352,-9.3652451297,5.1594477311,2.6297130043,9.3050792927,0.077714582,0.8091147594,1.6298244156,0.0649725294,-0.1052366751,0.0215873265,0.0008815021,0.0460051449,1.8578147558,-0.4718044269,-7.4834251738,-1.4469072538,0.3281922985,0.1694264463,-0.2540360998,-0.3515772161,-0.6601494451,1.7503127808,-0.3749905352,-9.3652451297,5.1594477311,2.6297130043,9.3050792927,0.077714582,0.8091147594,1.6298244156,0.0649725294,-0.1052366751,0.0215873265,0.0008815021,0.0460051449,1.8578147558,-0.4718044269,-7.4834251738,-1.4469072538,0.3281922985,0.1694264463,-0.2540360998,-0.3515772161,-0.6601494451,1.7503127808,-0.3749905352,-9.3652451297,5.1594477311,2.6297130043,9.3050792927,0.077714582,0.8091147594,1.6298244156,0.0649725294,-0.1052366751,0.0215873265,0.0008815021,0.0460051449,1.8578147558,-0.4718044269,-7.4834251738,-1.4469072538,0.3281922985,0.1694264463,-0.2540360998,-0.3515772161,-0.6601494451,1.7503127808,-0.3749905352,-9.3652451297,5.1594477311,2.6297130043,9.3050792927,0.077714582,0.8091147594,1.6298244156,0.0649725294,-0.1052366751,0.0215873265,0.0008815021,0.0460051449,1.8578147558,-0.4718044269,-7.4834251738,-1.4469072538,0.3281922985,0.1694264463,-0.2540360998,-0.3515772161,-0.6601494451,1.7503127808,-0.3749905352,-9.3652451297,5.1594477311,2.6297130043,9.3050792927,0.077714582,0.8091147594,1.6298244156,0.0649725294,-0.1052366751,0.0215873265,0.0008815021,0.0460051449,1.8578147558,-0.4718044269,-7.4834251738,-1.4469072538,0.3281922985,0.1694264463,-0.2540360998,-0.3515772161,-0.6601494451,1.7503127808,-0.3749905352,-9.3652451297,5.1594477311,2.6297130043,9.3050792927,0.077714582,0.8091147594,1.6298244156,0.0649725294,-0.1052366751,0.0215873265,0.0008815021,0.0460051449,1.8578147558,-0.4718044269,-7.4834251738,-1.4469072538,0.3281922985,0.1694264463,-0.2540360998,-0.3515772161,-0.6601494451,1.7503127808,-0.3749905352,-9.3652451297,5.1594477311,2.6297130043,9.3050792927,0.077714582,0.8091147594,1.6298244156,0.0649725294,-0.1052366751,0.0215873265,0.0008815021,0.0460051449,1.8578147558,-0.4718044269,-7.4834251738,-1.4469072538,0.3281922985,0.1694264463,-0.2540360998,-0.3515772161,-0.6601494451,1.7503127808,-0.3749905352,-9.3652451297,5.1594477311,2.6297130043,9.3050792927,0.077714582,0.8091147594,1.6298244156,0.0649725294,-0.1052366751,0.0215873265,0.0008815021,0.0460051449,1.8578147558,-0.4718044269,-7.4834251738,-1.4469072538,0.3281922985,0.1694264463,-0.2540360998,-0.3515772161,-0.6601494451,1.7503127808,-0.3749905352,-9.3652451297,5.1594477311,2.6297130043,9.3050792927,0.077714582,0.8091147594,1.6298244156,0.0649725294,-0.1052366751,0.0215873265,0.0008815021,0.0460051449,1.8578147558,-0.4718044269,-7.4834251738,-1.4469072538,0.3281922985,0.1694264463,-0.2540360998,-0.3515772161,-0.6601494451,1.7503127808,-0.3749905352,-9.3652451297,5.1594477311,2.6297130043,9.3050792927,0.077714582,0.8091147594,1.6298244156,0.0649725294,-0.1052366751,0.0215873265,0.0008815021,0.0460051449,1.8578147558,-0.4718044269,-7.4834251738,-1.4469072538,0.3281922985,0.1694264463,-0.2540360998,-0.3515772161,-0.6601494451,1.7503127808,-0.3749905352,-9.3652451297,5.1594477311,2.6297130043,9.3050792927,0.077714582,0.8091147594,1.6298244156,0.0649725294,-0.1052366751,0.0215873265,0.0008815021,0.0460051449,1.8578147558,-0.4718044269,-7.4834251738,-1.4469072538,0.3281922985,0.1694264463,-0.2540360998,-0.3515772161,-0.6601494451,1.7503127808,-0.3749905352,-9.3652451297,5.1594477311,2.6297130043,9.3050792927,0.077714582,0.8091147594,1.6298244156,0.0649725294,-0.1052366751,0.0215873265,0.0008815021,0.0460051449,1.8578147558,-0.4718044269,-7.4834251738,-1.4469072538,0.3281922985,0.1694264463,-0.2540360998,-0.3515772161,-0.6601494451,1.7503127808,-0.3749905352,-9.3652451297,5.1594477311,2.6297130043,9.3050792927,0.077714582,0.8091147594,1.6298244156,0.0649725294,-0.1052366751,0.0215873265,0.0008815021,0.0460051449,1.8578147558,-0.4718044269,-7.4834251738,-1.4469072538,0.3281922985,0.1694264463,-0.2540360998,-0.3515772161,-0.6601494451,1.7503127808,-0.3749905352,-9.3652451297,5.1594477311,2.6297130043,9.3050792927,0.077714582,0.8091147594,1.6298244156,0.0649725294,-0.1052366751,0.0215873265,0.0008815021,0.0460051449,1.8578147558,-0.4718044269,-7.4834251738,-1.4469072538,0.3281922985,0.1694264463,-0.2540360998,-0.3515772161,-0.6601494451,1.7503127808,-0.3749905352,-9.3652451297,5.1594477311,2.6297130043,9.3050792927,0.077714582,0.8091147594,1.6298244156,0.0649725294,-0.1052366751,0.0215873265,0.0008815021,0.0460051449,1.8578147558,-0.4718044269,-7.4834251738,-1.4469072538,0.3281922985,0.1694264463,-0.2540360998,-0.3515772161,-0.6601494451,1.7503127808,-0.3749905352,-9.3652451297,5.1594477311,2.6297130043,9.3050792927,0.077714582,0.8091147594,1.6298244156,0.0649725294,-0.1052366751,0.0215873265,0.0008815021,0.0460051449,1.8578147558,-0.4718044269,-7.4834251738,-1.4469072538,0.3281922985,0.1694264463,-0.2540360998,-0.3515772161,-0.6601494451,1.7503127808,-0.3749905352,-9.3652451297,5.1594477311,2.6297130043,9.3050792927,0.077714582,0.8091147594,1.6298244156,0.0649725294,-0.1052366751,0.0215873265,0.0008815021,0.0460051449,1.8578147558,-0.4718044269,-7.4834251738,-1.4469072538,0.3281922985,0.1694264463,-0.2540360998,-0.3515772161,-0.6601494451,1.7503127808,-0.3749905352,-9.3652451297,5.1594477311,2.6297130043,9.3050792927,0.077714582,0.8091147594,1.6298244156,0.0649725294,-0.1052366751,0.0215873265,0.0008815021,0.0460051449,1.8578147558,-0.4718044269,-7.4834251738,-1.4469072538,0.3281922985,0.1694264463,-0.2540360998,-0.3515772161,-0.6601494451,1.7503127808,-0.3749905352,-9.3652451297,5.1594477311,2.6297130043,9.3050792927,0.077714582,0.8091147594,1.6298244156,0.0649725294,-0.1052366751,0.0215873265,0.0008815021,0.0460051449,1.8578147558,-0.4718044269,-7.4834251738,-1.4469072538,0.3281922985,0.1694264463,-0.2540360998,-0.3515772161,-0.6601494451,1.7503127808,-0.3749905352,-9.3652451297,5.1594477311,2.6297130043,9.3050792927,0.077714582,0.8091147594,1.6298244156,0.0649725294,-0.1052366751,0.0215873265,0.0008815021,0.0460051449,1.8578147558,-0.4718044269,-7.4834251738,-1.4469072538,0.3281922985,0.1694264463,-0.2540360998,-0.3515772161,-0.6601494451,1.7503127808,-0.3749905352,-9.3652451297,5.1594477311,2.6297130043,9.3050792927,0.077714582,0.8091147594,1.6298244156,0.0649725294,-0.1052366751,0.0215873265,0.0008815021,0.0460051449,1.8578147558,-0.4718044269,-7.4834251738,-1.4469072538,0.3281922985,0.1694264463,-0.2540360998,-0.3515772161,-0.6601494451,1.7503127808,-0.3749905352,-9.3652451297,5.1594477311,2.6297130043,9.3050792927,0.077714582,0.8091147594,1.6298244156,0.0649725294,-0.1052366751,0.0215873265,0.0008815021,0.0460051449,1.8578147558,-0.4718044269,-7.4834251738,-1.4469072538,0.3281922985,0.1694264463,-0.2540360998,-0.3515772161,-0.6601494451,1.7503127808,-0.3749905352,-9.3652451297,5.1594477311,2.6297130043,9.3050792927,0.077714582,0.8091147594,1.6298244156,0.0649725294,-0.1052366751,0.0215873265,0.0008815021,0.0460051449,1.8578147558,-0.4718044269,-7.4834251738,-1.4469072538,0.3281922985,0.1694264463,-0.2540360998,-0.3515772161,-0.6601494451,1.7503127808,-0.3749905352,-9.3652451297,5.1594477311,2.6297130043,9.3050792927,0.077714582,0.8091147594,1.6298244156,0.0649725294,-0.1052366751,0.0215873265,0.0008815021,0.0460051449,1.8578147558,-0.4718044269,-7.4834251738,-1.4469072538,0.3281922985,0.1694264463,-0.2540360998,-0.3515772161,-0.6601494451,1.7503127808,-0.3749905352,-9.3652451297,5.1594477311,2.6297130043,9.3050792927,0.077714582,0.8091147594,1.6298244156,0.0649725294,-0.1052366751,0.0215873265,0.0008815021,0.0460051449,1.8578147558,-0.4718044269
biasActivation=0,1,1
[BASIC:ACTIVATION]
"org.encog.engine.network.activation.ActivationSigmoid"
"org.encog.engine.network.activation.ActivationSigmoid"
"org.encog.engine.network.activation.ActivationLinear"
