encog,BasicNetwork,java,3.3.0,1,1479847695536
[BASIC]
[BASIC:PARAMS]
[BASIC:NETWORK]
beginTraining=0
connectionLimit=0
contextTargetOffset=0,0,0
contextTargetSize=0,0,0
endTraining=2
hasContext=f
inputCount=22
layerCounts=1,31,23
layerFeedCounts=1,30,22
layerContextCount=0,0,0
layerIndex=0,1,32
output=0,0,0,0,0,0,0,0,0,0,0,0,0,0,0,0,0,0,0,0,0,0,0,0,0,0,0,0,0,0,0,1,0,0,0,0,0,0,0,0,0,0,0,0,0,0,0,0,0,0,0,0,0,0,1
outputCount=1
weightIndex=0,31,721
weights=-0.1834659835,-0.1834659835,-0.1834659835,-0.1834659835,-0.1834659835,-0.1834659835,-0.1834659835,-0.1834659835,-0.1834659835,-0.1834659835,-0.1834659835,-0.1834659835,-0.1834659835,-0.1834659835,-0.1834659835,-0.1834659835,-0.1834659835,-0.1834659835,-0.1834659835,-0.1834659835,-0.1834659835,-0.1834659835,-0.1834659835,-0.1834659835,-0.1834659835,-0.1834659835,-0.1834659835,-0.1834659835,-0.1834659835,-0.1834659835,-0.0968920223,-5.4135409493,-0.0916375047,-0.0981373419,-0.0901498771,-0.0901498771,-0.7087023836,0.2877154278,2.7642825538,0.0239413085,3.3766522518,-0.0108265809,-0.4947775454,4.8914948411,-0.7239441523,2.4249350697,4.5059965612,1.4048884281,0.0711346499,1.1778871033,-2.9740596312,-0.1438905349,-0.1438905349,-0.0901498771,-5.4135409493,-0.0916375047,-0.0981373419,-0.0901498771,-0.0901498771,-0.7087023836,0.2877154278,2.7642825538,0.0239413085,3.3766522518,-0.0108265809,-0.4947775454,4.8914948411,-0.7239441523,2.4249350697,4.5059965612,1.4048884281,0.0711346499,1.1778871033,-2.9740596312,-0.1438905349,-0.1438905349,-0.0901498771,-5.4135409493,-0.0916375047,-0.0981373419,-0.0901498771,-0.0901498771,-0.7087023836,0.2877154278,2.7642825538,0.0239413085,3.3766522518,-0.0108265809,-0.4947775454,4.8914948411,-0.7239441523,2.4249350697,4.5059965612,1.4048884281,0.0711346499,1.1778871033,-2.9740596312,-0.1438905349,-0.1438905349,-0.0901498771,-5.4135409493,-0.0916375047,-0.0981373419,-0.0901498771,-0.0901498771,-0.7087023836,0.2877154278,2.7642825538,0.0239413085,3.3766522518,-0.0108265809,-0.4947775454,4.8914948411,-0.7239441523,2.4249350697,4.5059965612,1.4048884281,0.0711346499,1.1778871033,-2.9740596312,-0.1438905349,-0.1438905349,-0.0901498771,-5.4135409493,-0.0916375047,-0.0981373419,-0.0901498771,-0.0901498771,-0.7087023836,0.2877154278,2.7642825538,0.0239413085,3.3766522518,-0.0108265809,-0.4947775454,4.8914948411,-0.7239441523,2.4249350697,4.5059965612,1.4048884281,0.0711346499,1.1778871033,-2.9740596312,-0.1438905349,-0.1438905349,-0.0901498771,-5.4135409493,-0.0916375047,-0.0981373419,-0.0901498771,-0.0901498771,-0.7087023836,0.2877154278,2.7642825538,0.0239413085,3.3766522518,-0.0108265809,-0.4947775454,4.8914948411,-0.7239441523,2.4249350697,4.5059965612,1.4048884281,0.0711346499,1.1778871033,-2.9740596312,-0.1438905349,-0.1438905349,-0.0901498771,-5.4135409493,-0.0916375047,-0.0981373419,-0.0901498771,-0.0901498771,-0.7087023836,0.2877154278,2.7642825538,0.0239413085,3.3766522518,-0.0108265809,-0.4947775454,4.8914948411,-0.7239441523,2.4249350697,4.5059965612,1.4048884281,0.0711346499,1.1778871033,-2.9740596312,-0.1438905349,-0.1438905349,-0.0901498771,-5.4135409493,-0.0916375047,-0.0981373419,-0.0901498771,-0.0901498771,-0.7087023836,0.2877154278,2.7642825538,0.0239413085,3.3766522518,-0.0108265809,-0.4947775454,4.8914948411,-0.7239441523,2.4249350697,4.5059965612,1.4048884281,0.0711346499,1.1778871033,-2.9740596312,-0.1438905349,-0.1438905349,-0.0901498771,-5.4135409493,-0.0916375047,-0.0981373419,-0.0901498771,-0.0901498771,-0.7087023836,0.2877154278,2.7642825538,0.0239413085,3.3766522518,-0.0108265809,-0.4947775454,4.8914948411,-0.7239441523,2.4249350697,4.5059965612,1.4048884281,0.0711346499,1.1778871033,-2.9740596312,-0.1438905349,-0.1438905349,-0.0901498771,-5.4135409493,-0.0916375047,-0.0981373419,-0.0901498771,-0.0901498771,-0.7087023836,0.2877154278,2.7642825538,0.0239413085,3.3766522518,-0.0108265809,-0.4947775454,4.8914948411,-0.7239441523,2.4249350697,4.5059965612,1.4048884281,0.0711346499,1.1778871033,-2.9740596312,-0.1438905349,-0.1438905349,-0.0901498771,-5.4135409493,-0.0916375047,-0.0981373419,-0.0901498771,-0.0901498771,-0.7087023836,0.2877154278,2.7642825538,0.0239413085,3.3766522518,-0.0108265809,-0.4947775454,4.8914948411,-0.7239441523,2.4249350697,4.5059965612,1.4048884281,0.0711346499,1.1778871033,-2.9740596312,-0.1438905349,-0.1438905349,-0.0901498771,-5.4135409493,-0.0916375047,-0.0981373419,-0.0901498771,-0.0901498771,-0.7087023836,0.2877154278,2.7642825538,0.0239413085,3.3766522518,-0.0108265809,-0.4947775454,4.8914948411,-0.7239441523,2.4249350697,4.5059965612,1.4048884281,0.0711346499,1.1778871033,-2.9740596312,-0.1438905349,-0.1438905349,-0.0901498771,-5.4135409493,-0.0916375047,-0.0981373419,-0.0901498771,-0.0901498771,-0.7087023836,0.2877154278,2.7642825538,0.0239413085,3.3766522518,-0.0108265809,-0.4947775454,4.8914948411,-0.7239441523,2.4249350697,4.5059965612,1.4048884281,0.0711346499,1.1778871033,-2.9740596312,-0.1438905349,-0.1438905349,-0.0901498771,-5.4135409493,-0.0916375047,-0.0981373419,-0.0901498771,-0.0901498771,-0.7087023836,0.2877154278,2.7642825538,0.0239413085,3.3766522518,-0.0108265809,-0.4947775454,4.8914948411,-0.7239441523,2.4249350697,4.5059965612,1.4048884281,0.0711346499,1.1778871033,-2.9740596312,-0.1438905349,-0.1438905349,-0.0901498771,-5.4135409493,-0.0916375047,-0.0981373419,-0.0901498771,-0.0901498771,-0.7087023836,0.2877154278,2.7642825538,0.0239413085,3.3766522518,-0.0108265809,-0.4947775454,4.8914948411,-0.7239441523,2.4249350697,4.5059965612,1.4048884281,0.0711346499,1.1778871033,-2.9740596312,-0.1438905349,-0.1438905349,-0.0901498771,-5.4135409493,-0.0916375047,-0.0981373419,-0.0901498771,-0.0901498771,-0.7087023836,0.2877154278,2.7642825538,0.0239413085,3.3766522518,-0.0108265809,-0.4947775454,4.8914948411,-0.7239441523,2.4249350697,4.5059965612,1.4048884281,0.0711346499,1.1778871033,-2.9740596312,-0.1438905349,-0.1438905349,-0.0901498771,-5.4135409493,-0.0916375047,-0.0981373419,-0.0901498771,-0.0901498771,-0.7087023836,0.2877154278,2.7642825538,0.0239413085,3.3766522518,-0.0108265809,-0.4947775454,4.8914948411,-0.7239441523,2.4249350697,4.5059965612,1.4048884281,0.0711346499,1.1778871033,-2.9740596312,-0.1438905349,-0.1438905349,-0.0901498771,-5.4135409493,-0.0916375047,-0.0981373419,-0.0901498771,-0.0901498771,-0.7087023836,0.2877154278,2.7642825538,0.0239413085,3.3766522518,-0.0108265809,-0.4947775454,4.8914948411,-0.7239441523,2.4249350697,4.5059965612,1.4048884281,0.0711346499,1.1778871033,-2.9740596312,-0.1438905349,-0.1438905349,-0.0901498771,-5.4135409493,-0.0916375047,-0.0981373419,-0.0901498771,-0.0901498771,-0.7087023836,0.2877154278,2.7642825538,0.0239413085,3.3766522518,-0.0108265809,-0.4947775454,4.8914948411,-0.7239441523,2.4249350697,4.5059965612,1.4048884281,0.0711346499,1.1778871033,-2.9740596312,-0.1438905349,-0.1438905349,-0.0901498771,-5.4135409493,-0.0916375047,-0.0981373419,-0.0901498771,-0.0901498771,-0.7087023836,0.2877154278,2.7642825538,0.0239413085,3.3766522518,-0.0108265809,-0.4947775454,4.8914948411,-0.7239441523,2.4249350697,4.5059965612,1.4048884281,0.0711346499,1.1778871033,-2.9740596312,-0.1438905349,-0.1438905349,-0.0901498771,-5.4135409493,-0.0916375047,-0.0981373419,-0.0901498771,-0.0901498771,-0.7087023836,0.2877154278,2.7642825538,0.0239413085,3.3766522518,-0.0108265809,-0.4947775454,4.8914948411,-0.7239441523,2.4249350697,4.5059965612,1.4048884281,0.0711346499,1.1778871033,-2.9740596312,-0.1438905349,-0.1438905349,-0.0901498771,-5.4135409493,-0.0916375047,-0.0981373419,-0.0901498771,-0.0901498771,-0.7087023836,0.2877154278,2.7642825538,0.0239413085,3.3766522518,-0.0108265809,-0.4947775454,4.8914948411,-0.7239441523,2.4249350697,4.5059965612,1.4048884281,0.0711346499,1.1778871033,-2.9740596312,-0.1438905349,-0.1438905349,-0.0901498771,-5.4135409493,-0.0916375047,-0.0981373419,-0.0901498771,-0.0901498771,-0.7087023836,0.2877154278,2.7642825538,0.0239413085,3.3766522518,-0.0108265809,-0.4947775454,4.8914948411,-0.7239441523,2.4249350697,4.5059965612,1.4048884281,0.0711346499,1.1778871033,-2.9740596312,-0.1438905349,-0.1438905349,-0.0901498771,-5.4135409493,-0.0916375047,-0.0981373419,-0.0901498771,-0.0901498771,-0.7087023836,0.2877154278,2.7642825538,0.0239413085,3.3766522518,-0.0108265809,-0.4947775454,4.8914948411,-0.7239441523,2.4249350697,4.5059965612,1.4048884281,0.0711346499,1.1778871033,-2.9740596312,-0.1438905349,-0.1438905349,-0.0901498771,-5.4135409493,-0.0916375047,-0.0981373419,-0.0901498771,-0.0901498771,-0.7087023836,0.2877154278,2.7642825538,0.0239413085,3.3766522518,-0.0108265809,-0.4947775454,4.8914948411,-0.7239441523,2.4249350697,4.5059965612,1.4048884281,0.0711346499,1.1778871033,-2.9740596312,-0.1438905349,-0.1438905349,-0.0901498771,-5.4135409493,-0.0916375047,-0.0981373419,-0.0901498771,-0.0901498771,-0.7087023836,0.2877154278,2.7642825538,0.0239413085,3.3766522518,-0.0108265809,-0.4947775454,4.8914948411,-0.7239441523,2.4249350697,4.5059965612,1.4048884281,0.0711346499,1.1778871033,-2.9740596312,-0.1438905349,-0.1438905349,-0.0901498771,-5.4135409493,-0.0916375047,-0.0981373419,-0.0901498771,-0.0901498771,-0.7087023836,0.2877154278,2.7642825538,0.0239413085,3.3766522518,-0.0108265809,-0.4947775454,4.8914948411,-0.7239441523,2.4249350697,4.5059965612,1.4048884281,0.0711346499,1.1778871033,-2.9740596312,-0.1438905349,-0.1438905349,-0.0901498771,-5.4135409493,-0.0916375047,-0.0981373419,-0.0901498771,-0.0901498771,-0.7087023836,0.2877154278,2.7642825538,0.0239413085,3.3766522518,-0.0108265809,-0.4947775454,4.8914948411,-0.7239441523,2.4249350697,4.5059965612,1.4048884281,0.0711346499,1.1778871033,-2.9740596312,-0.1438905349,-0.1438905349,-0.0901498771,-5.4135409493,-0.0916375047,-0.0981373419,-0.0901498771,-0.0901498771,-0.7087023836,0.2877154278,2.7642825538,0.0239413085,3.3766522518,-0.0108265809,-0.4947775454,4.8914948411,-0.7239441523,2.4249350697,4.5059965612,1.4048884281,0.0711346499,1.1778871033,-2.9740596312,-0.1438905349,-0.1438905349,-0.0901498771,-5.4135409493,-0.0916375047,-0.0981373419,-0.0901498771,-0.0901498771,-0.7087023836,0.2877154278,2.7642825538,0.0239413085,3.3766522518,-0.0108265809,-0.4947775454,4.8914948411,-0.7239441523,2.4249350697,4.5059965612,1.4048884281,0.0711346499,1.1778871033,-2.9740596312,-0.1438905349,-0.1438905349,-0.0901498771
biasActivation=0,1,1
[BASIC:ACTIVATION]
"org.encog.engine.network.activation.ActivationSigmoid"
"org.encog.engine.network.activation.ActivationSigmoid"
"org.encog.engine.network.activation.ActivationLinear"
