encog,BasicNetwork,java,3.3.0,1,1480251205046
[BASIC]
[BASIC:PARAMS]
[BASIC:NETWORK]
beginTraining=0
connectionLimit=0
contextTargetOffset=0,0,0
contextTargetSize=0,0,0
endTraining=2
hasContext=f
inputCount=8
layerCounts=1,31,9
layerFeedCounts=1,30,8
layerContextCount=0,0,0
layerIndex=0,1,32
output=0,0,0,0,0,0,0,0,0,0,0,0,0,0,0,0,0,0,0,0,0,0,0,0,0,0,0,0,0,0,0,1,0,0,0,0,0,0,0,0,1
outputCount=1
weightIndex=0,31,301
weights=-0.1280166012,0.0901072258,0.7202850588,0.7051430363,0.5764759214,0.9464608969,-0.5350351438,0.3299465265,-0.7021554761,0.2804330824,0.5669084367,-0.4677726622,0.5828896748,0.7633883388,-0.1049834782,0.2846439161,-0.8588235862,0.8682555477,0.630527299,0.54059081,-0.7544984725,-0.49696104,-0.6574013265,-0.5583601021,0.3691506787,-1.429442557,0.6008060351,-0.7056676823,-0.3945466742,-0.6114459291,-0.1909956014,0.1728226338,0.5035076288,0.5483573847,-0.003766045,-0.8153773652,-0.7908032162,0.6876085076,0.3889943648,-0.4446480209,0.1143872391,-0.4446427993,0.2750484078,0.5621170191,0.1400605562,0.3850035327,0.3084030399,0.321851318,-0.2619920995,0.6344658981,-0.8414350033,-0.3522638934,0.8384538092,-0.864130691,0.4815439988,-0.1629088238,0.3707896612,0.3308196413,-0.7632925528,-0.3693186148,0.5546905729,-0.1594715318,0.6828038111,-0.0442226318,-0.4309075229,0.5973178367,-0.433291061,0.4605108742,0.7589938397,0.6802609598,-0.6517276751,0.2755297606,-0.063313787,0.3113994213,0.371054562,-0.5564319573,0.2207822296,-0.1496690206,0.4656029843,-0.5435998889,0.6800654669,-0.23801016,-0.761897901,1.1863284967,0.6394072269,0.929187601,-0.417705706,0.5813013403,0.0635471155,-0.9620549098,0.3892272466,0.5371555674,0.4633183356,-0.2377483369,-0.2010582121,0.8821016982,-0.0751304945,0.4706220075,-0.9020148729,0.9573541604,-0.3677701874,0.6898766802,-0.5268307299,-0.0573762089,0.0169689217,-0.059590981,-0.2362833407,0.9779637046,0.5962483274,0.6075663849,-0.1362320242,-0.4343950301,0.4145743782,-0.2963562908,0.8020367209,-1.1304173423,0.4882578395,-0.1624005616,0.7003567378,-0.5670685522,-0.6205630478,-0.291635085,0.4809930156,-1.0409523947,0.0531822669,-0.35535377,0.8177732619,-0.0408161749,-0.1393738383,-0.8646430289,-0.4310213777,0.7617814973,-0.6977397218,-0.0335711865,0.9871204946,-0.2437965153,-0.7514363557,0.0135616585,-0.5441316544,-1.3036790344,-0.3034475652,-0.4543968831,0.1741983237,-0.1223330061,-1.0349300863,0.546245451,0.3117000634,-0.4243499144,0.8750358176,0.4282422666,0.0040949689,-0.1158667071,-0.8275111292,-0.8454556076,-0.1557554196,-0.1521876645,-0.7566454159,-0.3766081975,-0.2421830024,1.0527350706,0.5350770385,0.144317938,0.3978478114,-0.527024373,-0.9575063629,-0.4021726265,0.7636991998,-0.7612288964,-0.8288179606,0.0354725503,0.2527570389,0.8228465471,0.5509613191,0.5990914332,-0.831397006,0.3811401564,0.8997544815,-0.1655045138,-0.7864357366,0.0007501566,0.3881767952,-0.085747459,0.0512339472,0.2797087939,0.3000514707,0.7075532207,-0.7182807685,-1.0674362455,-0.1430253649,0.8258167124,0.973158488,0.4441882475,0.6235022745,-0.6079885732,0.485411369,-0.1375022618,0.4609481223,-0.894267072,0.6886160559,0.5423919049,-0.0526958295,-0.766238716,-0.2965964117,-0.5385977621,0.1149815041,0.0901291326,0.8848237645,-0.5562784926,0.5460068749,-0.3580148569,-0.2520729354,0.716660555,-0.4343353265,-0.6124430056,-0.1745493145,-0.7277579483,-0.5236820823,0.8491986496,0.621737572,0.3740119971,-0.6883868968,-0.4538814921,-0.1338047003,-0.5605422123,0.8597899529,0.4271308289,0.6352042302,-1.1579896465,0.0410138696,0.3163388931,0.6805186713,0.8532833004,-0.5206780074,0.2902798058,0.4192408861,-0.4901853956,0.3845849415,0.1611957526,-0.1468668011,-0.7166409972,-0.6207825032,-0.4806271486,-0.2988855427,0.9732390883,0.3161768489,0.1854936656,-0.7502919526,-1.4747628269,-0.8476426444,-0.366097612,-2.2647285308,-0.9614296235,-1.4620694185,0.8742403941,1.2109163565,-0.4530235034,-2.0792394877,-0.992717675,-1.4563981106,-2.7452477891,1.0544359385,-1.8832698506,0.7711388935,-0.4806728528,-0.8572441886,0.7598206931,0.842282156,0.816680351,-0.5469986798,0.366631702,0.031048356,0.4390042426,-0.5958998071,0.0170397961,0.2000456449,0.9368718655,0.3285859487,0.4998070347,-0.3320569754,0.0608146485,-0.6013123008,-0.4316589369,0.4326289796,0.3768296536,0.6885915385,0.3583500086,0.1173006468,-0.1405604409,0.7888495316,-0.6926714561,0.0858519619,-0.1529073184,-0.1793891836,0.4967149616,0.386315708,-0.0928716531,0.4674068338,-0.3572443292,0.8709107249,-0.3669376363,-0.1210450628
biasActivation=0,1,1
[BASIC:ACTIVATION]
"org.encog.engine.network.activation.ActivationLinear"
"org.encog.engine.network.activation.ActivationSigmoid"
"org.encog.engine.network.activation.ActivationLinear"
