encog,BasicNetwork,java,3.3.0,1,1480888308026
[BASIC]
[BASIC:PARAMS]
[BASIC:NETWORK]
beginTraining=0
connectionLimit=0
contextTargetOffset=0,0,0
contextTargetSize=0,0,0
endTraining=2
hasContext=f
inputCount=2
layerCounts=1,11,3
layerFeedCounts=1,10,2
layerContextCount=0,0,0
layerIndex=0,1,12
output=0,0,0,0,0,0,0,0,0,0,0,1,0,0,1
outputCount=1
weightIndex=0,11,41
weights=-0.3252533346,-0.0203512525,0.6235541477,-0.231432429,0.2679871643,0.546344012,-0.6458667363,-0.1090130364,-0.0254989221,0.4537120018,-0.4538104066,0.4673491148,-1.3707547654,0.6868939004,-0.5729964552,-1.5731129101,-0.1961583674,-0.1621915668,0.2520712409,1.0352129137,-0.344436992,0.4878988144,2.2625933963,0.4906490806,0.7839855101,0.8463836845,0.0036497106,0.2099041162,0.2870607253,-0.306302637,0.947820564,-0.6055609099,0.4296983184,0.5014393862,-0.9251164847,-0.6835514914,-1.3127396099,-0.8975460327,0.0963334214,-0.1636850405,-0.624670298
biasActivation=0,1,1
[BASIC:ACTIVATION]
"org.encog.engine.network.activation.ActivationTANH"
"org.encog.engine.network.activation.ActivationSigmoid"
"org.encog.engine.network.activation.ActivationLinear"
