encog,BasicNetwork,java,3.3.0,1,1479759498722
[BASIC]
[BASIC:PARAMS]
[BASIC:NETWORK]
beginTraining=0
connectionLimit=0
contextTargetOffset=0,0,0
contextTargetSize=0,0,0
endTraining=2
hasContext=f
inputCount=22
layerCounts=1,31,23
layerFeedCounts=1,30,22
layerContextCount=0,0,0
layerIndex=0,1,32
output=0,0,0,0,0,0,0,0,0,0,0,0,0,0,0,0,0,0,0,0,0,0,0,0,0,0,0,0,0,0,0,1,0,0,0,0,0,0,0,0,0,0,0,0,0,0,0,0,0,0,0,0,0,0,1
outputCount=1
weightIndex=0,31,721
weights=-3.719594507,-3.719594507,-3.719594507,-3.719594507,-3.719594507,-3.719594507,-3.719594507,-3.719594507,-3.719594507,-3.719594507,-3.719594507,-3.719594507,-3.719594507,-3.719594507,-3.719594507,-3.719594507,-3.719594507,-3.719594507,-3.719594507,-3.719594507,-3.719594507,-3.719594507,-3.719594507,-3.719594507,-3.719594507,-3.719594507,-3.719594507,-3.719594507,-3.719594507,-3.719594507,12.3994457532,-9.832588973,-1.8493254409,0.3542831372,-0.7242468129,0.2121633988,-0.3627855164,-0.339074021,1.8589335145,-0.4691806199,-12.7155520628,7.2155346231,3.5000714653,12.1644885803,0.1407805609,1.0410157212,1.8525021771,0.4662273565,-0.0342526224,0.1064811685,0.1619812319,0.2921607415,1.7291594244,-0.8083179401,-9.832588973,-1.8493254409,0.3542831372,-0.7242468129,0.2121633988,-0.3627855164,-0.339074021,1.8589335145,-0.4691806199,-12.7155520628,7.2155346231,3.5000714653,12.1644885803,0.1407805609,1.0410157212,1.8525021771,0.4662273565,-0.0342526224,0.1064811685,0.1619812319,0.2921607415,1.7291594244,-0.8083179401,-9.832588973,-1.8493254409,0.3542831372,-0.7242468129,0.2121633988,-0.3627855164,-0.339074021,1.8589335145,-0.4691806199,-12.7155520628,7.2155346231,3.5000714653,12.1644885803,0.1407805609,1.0410157212,1.8525021771,0.4662273565,-0.0342526224,0.1064811685,0.1619812319,0.2921607415,1.7291594244,-0.8083179401,-9.832588973,-1.8493254409,0.3542831372,-0.7242468129,0.2121633988,-0.3627855164,-0.339074021,1.8589335145,-0.4691806199,-12.7155520628,7.2155346231,3.5000714653,12.1644885803,0.1407805609,1.0410157212,1.8525021771,0.4662273565,-0.0342526224,0.1064811685,0.1619812319,0.2921607415,1.7291594244,-0.8083179401,-9.832588973,-1.8493254409,0.3542831372,-0.7242468129,0.2121633988,-0.3627855164,-0.339074021,1.8589335145,-0.4691806199,-12.7155520628,7.2155346231,3.5000714653,12.1644885803,0.1407805609,1.0410157212,1.8525021771,0.4662273565,-0.0342526224,0.1064811685,0.1619812319,0.2921607415,1.7291594244,-0.8083179401,-9.832588973,-1.8493254409,0.3542831372,-0.7242468129,0.2121633988,-0.3627855164,-0.339074021,1.8589335145,-0.4691806199,-12.7155520628,7.2155346231,3.5000714653,12.1644885803,0.1407805609,1.0410157212,1.8525021771,0.4662273565,-0.0342526224,0.1064811685,0.1619812319,0.2921607415,1.7291594244,-0.8083179401,-9.832588973,-1.8493254409,0.3542831372,-0.7242468129,0.2121633988,-0.3627855164,-0.339074021,1.8589335145,-0.4691806199,-12.7155520628,7.2155346231,3.5000714653,12.1644885803,0.1407805609,1.0410157212,1.8525021771,0.4662273565,-0.0342526224,0.1064811685,0.1619812319,0.2921607415,1.7291594244,-0.8083179401,-9.832588973,-1.8493254409,0.3542831372,-0.7242468129,0.2121633988,-0.3627855164,-0.339074021,1.8589335145,-0.4691806199,-12.7155520628,7.2155346231,3.5000714653,12.1644885803,0.1407805609,1.0410157212,1.8525021771,0.4662273565,-0.0342526224,0.1064811685,0.1619812319,0.2921607415,1.7291594244,-0.8083179401,-9.832588973,-1.8493254409,0.3542831372,-0.7242468129,0.2121633988,-0.3627855164,-0.339074021,1.8589335145,-0.4691806199,-12.7155520628,7.2155346231,3.5000714653,12.1644885803,0.1407805609,1.0410157212,1.8525021771,0.4662273565,-0.0342526224,0.1064811685,0.1619812319,0.2921607415,1.7291594244,-0.8083179401,-9.832588973,-1.8493254409,0.3542831372,-0.7242468129,0.2121633988,-0.3627855164,-0.339074021,1.8589335145,-0.4691806199,-12.7155520628,7.2155346231,3.5000714653,12.1644885803,0.1407805609,1.0410157212,1.8525021771,0.4662273565,-0.0342526224,0.1064811685,0.1619812319,0.2921607415,1.7291594244,-0.8083179401,-9.832588973,-1.8493254409,0.3542831372,-0.7242468129,0.2121633988,-0.3627855164,-0.339074021,1.8589335145,-0.4691806199,-12.7155520628,7.2155346231,3.5000714653,12.1644885803,0.1407805609,1.0410157212,1.8525021771,0.4662273565,-0.0342526224,0.1064811685,0.1619812319,0.2921607415,1.7291594244,-0.8083179401,-9.832588973,-1.8493254409,0.3542831372,-0.7242468129,0.2121633988,-0.3627855164,-0.339074021,1.8589335145,-0.4691806199,-12.7155520628,7.2155346231,3.5000714653,12.1644885803,0.1407805609,1.0410157212,1.8525021771,0.4662273565,-0.0342526224,0.1064811685,0.1619812319,0.2921607415,1.7291594244,-0.8083179401,-9.832588973,-1.8493254409,0.3542831372,-0.7242468129,0.2121633988,-0.3627855164,-0.339074021,1.8589335145,-0.4691806199,-12.7155520628,7.2155346231,3.5000714653,12.1644885803,0.1407805609,1.0410157212,1.8525021771,0.4662273565,-0.0342526224,0.1064811685,0.1619812319,0.2921607415,1.7291594244,-0.8083179401,-9.832588973,-1.8493254409,0.3542831372,-0.7242468129,0.2121633988,-0.3627855164,-0.339074021,1.8589335145,-0.4691806199,-12.7155520628,7.2155346231,3.5000714653,12.1644885803,0.1407805609,1.0410157212,1.8525021771,0.4662273565,-0.0342526224,0.1064811685,0.1619812319,0.2921607415,1.7291594244,-0.8083179401,-9.832588973,-1.8493254409,0.3542831372,-0.7242468129,0.2121633988,-0.3627855164,-0.339074021,1.8589335145,-0.4691806199,-12.7155520628,7.2155346231,3.5000714653,12.1644885803,0.1407805609,1.0410157212,1.8525021771,0.4662273565,-0.0342526224,0.1064811685,0.1619812319,0.2921607415,1.7291594244,-0.8083179401,-9.832588973,-1.8493254409,0.3542831372,-0.7242468129,0.2121633988,-0.3627855164,-0.339074021,1.8589335145,-0.4691806199,-12.7155520628,7.2155346231,3.5000714653,12.1644885803,0.1407805609,1.0410157212,1.8525021771,0.4662273565,-0.0342526224,0.1064811685,0.1619812319,0.2921607415,1.7291594244,-0.8083179401,-9.832588973,-1.8493254409,0.3542831372,-0.7242468129,0.2121633988,-0.3627855164,-0.339074021,1.8589335145,-0.4691806199,-12.7155520628,7.2155346231,3.5000714653,12.1644885803,0.1407805609,1.0410157212,1.8525021771,0.4662273565,-0.0342526224,0.1064811685,0.1619812319,0.2921607415,1.7291594244,-0.8083179401,-9.832588973,-1.8493254409,0.3542831372,-0.7242468129,0.2121633988,-0.3627855164,-0.339074021,1.8589335145,-0.4691806199,-12.7155520628,7.2155346231,3.5000714653,12.1644885803,0.1407805609,1.0410157212,1.8525021771,0.4662273565,-0.0342526224,0.1064811685,0.1619812319,0.2921607415,1.7291594244,-0.8083179401,-9.832588973,-1.8493254409,0.3542831372,-0.7242468129,0.2121633988,-0.3627855164,-0.339074021,1.8589335145,-0.4691806199,-12.7155520628,7.2155346231,3.5000714653,12.1644885803,0.1407805609,1.0410157212,1.8525021771,0.4662273565,-0.0342526224,0.1064811685,0.1619812319,0.2921607415,1.7291594244,-0.8083179401,-9.832588973,-1.8493254409,0.3542831372,-0.7242468129,0.2121633988,-0.3627855164,-0.339074021,1.8589335145,-0.4691806199,-12.7155520628,7.2155346231,3.5000714653,12.1644885803,0.1407805609,1.0410157212,1.8525021771,0.4662273565,-0.0342526224,0.1064811685,0.1619812319,0.2921607415,1.7291594244,-0.8083179401,-9.832588973,-1.8493254409,0.3542831372,-0.7242468129,0.2121633988,-0.3627855164,-0.339074021,1.8589335145,-0.4691806199,-12.7155520628,7.2155346231,3.5000714653,12.1644885803,0.1407805609,1.0410157212,1.8525021771,0.4662273565,-0.0342526224,0.1064811685,0.1619812319,0.2921607415,1.7291594244,-0.8083179401,-9.832588973,-1.8493254409,0.3542831372,-0.7242468129,0.2121633988,-0.3627855164,-0.339074021,1.8589335145,-0.4691806199,-12.7155520628,7.2155346231,3.5000714653,12.1644885803,0.1407805609,1.0410157212,1.8525021771,0.4662273565,-0.0342526224,0.1064811685,0.1619812319,0.2921607415,1.7291594244,-0.8083179401,-9.832588973,-1.8493254409,0.3542831372,-0.7242468129,0.2121633988,-0.3627855164,-0.339074021,1.8589335145,-0.4691806199,-12.7155520628,7.2155346231,3.5000714653,12.1644885803,0.1407805609,1.0410157212,1.8525021771,0.4662273565,-0.0342526224,0.1064811685,0.1619812319,0.2921607415,1.7291594244,-0.8083179401,-9.832588973,-1.8493254409,0.3542831372,-0.7242468129,0.2121633988,-0.3627855164,-0.339074021,1.8589335145,-0.4691806199,-12.7155520628,7.2155346231,3.5000714653,12.1644885803,0.1407805609,1.0410157212,1.8525021771,0.4662273565,-0.0342526224,0.1064811685,0.1619812319,0.2921607415,1.7291594244,-0.8083179401,-9.832588973,-1.8493254409,0.3542831372,-0.7242468129,0.2121633988,-0.3627855164,-0.339074021,1.8589335145,-0.4691806199,-12.7155520628,7.2155346231,3.5000714653,12.1644885803,0.1407805609,1.0410157212,1.8525021771,0.4662273565,-0.0342526224,0.1064811685,0.1619812319,0.2921607415,1.7291594244,-0.8083179401,-9.832588973,-1.8493254409,0.3542831372,-0.7242468129,0.2121633988,-0.3627855164,-0.339074021,1.8589335145,-0.4691806199,-12.7155520628,7.2155346231,3.5000714653,12.1644885803,0.1407805609,1.0410157212,1.8525021771,0.4662273565,-0.0342526224,0.1064811685,0.1619812319,0.2921607415,1.7291594244,-0.8083179401,-9.832588973,-1.8493254409,0.3542831372,-0.7242468129,0.2121633988,-0.3627855164,-0.339074021,1.8589335145,-0.4691806199,-12.7155520628,7.2155346231,3.5000714653,12.1644885803,0.1407805609,1.0410157212,1.8525021771,0.4662273565,-0.0342526224,0.1064811685,0.1619812319,0.2921607415,1.7291594244,-0.8083179401,-9.832588973,-1.8493254409,0.3542831372,-0.7242468129,0.2121633988,-0.3627855164,-0.339074021,1.8589335145,-0.4691806199,-12.7155520628,7.2155346231,3.5000714653,12.1644885803,0.1407805609,1.0410157212,1.8525021771,0.4662273565,-0.0342526224,0.1064811685,0.1619812319,0.2921607415,1.7291594244,-0.8083179401,-9.832588973,-1.8493254409,0.3542831372,-0.7242468129,0.2121633988,-0.3627855164,-0.339074021,1.8589335145,-0.4691806199,-12.7155520628,7.2155346231,3.5000714653,12.1644885803,0.1407805609,1.0410157212,1.8525021771,0.4662273565,-0.0342526224,0.1064811685,0.1619812319,0.2921607415,1.7291594244,-0.8083179401,-9.832588973,-1.8493254409,0.3542831372,-0.7242468129,0.2121633988,-0.3627855164,-0.339074021,1.8589335145,-0.4691806199,-12.7155520628,7.2155346231,3.5000714653,12.1644885803,0.1407805609,1.0410157212,1.8525021771,0.4662273565,-0.0342526224,0.1064811685,0.1619812319,0.2921607415,1.7291594244,-0.8083179401
biasActivation=0,1,1
[BASIC:ACTIVATION]
"org.encog.engine.network.activation.ActivationSigmoid"
"org.encog.engine.network.activation.ActivationSigmoid"
"org.encog.engine.network.activation.ActivationLinear"
