encog,BasicNetwork,java,3.3.0,1,1480278447142
[BASIC]
[BASIC:PARAMS]
[BASIC:NETWORK]
beginTraining=0
connectionLimit=0
contextTargetOffset=0,0,0
contextTargetSize=0,0,0
endTraining=2
hasContext=f
inputCount=7
layerCounts=2,21,8
layerFeedCounts=1,20,7
layerContextCount=0,0,0
layerIndex=0,2,23
output=0,1,0,0,0,0,0,0,0,0,0,0,0,0,0,0,0,0,0,0,0,0,1,0,0,0,0,0,0,0,1
outputCount=1
weightIndex=0,21,181
weights=0.2487822491,0.4827887714,0.0355704544,-0.8238023217,0.0206037011,0.4287966238,-1.1559867846,0.0401915449,1.1216803878,0.6193044292,-0.0800196353,0.6287716322,-0.7629752885,0.3386140299,-0.3701897394,-0.4749172967,0.5605497717,-1.1092725426,0.6147701739,0.6698112593,-0.3744162501,-0.9017802831,1.3297457423,0.2761830133,-0.2995563488,-0.540818809,0.6552570184,-1.0068882756,-0.6855543767,-4.9597872134,9.3438558027,77.0105957814,1.1206591309,1.2935287777,-0.2708754669,-1.8270874421,-0.452110602,-1.6896887349,0.1369565141,0.0463428324,0.0270934339,-0.6551771905,0.3270449101,-2.2434601784,0.3157016764,-0.6566054184,-1.4538324674,-2.7634296436,0.2517676859,-0.2728232541,-0.1557571696,-0.0782005366,0.0278019581,0.0510382623,-0.0011462981,-0.4203083006,-0.5528676288,-0.8036301699,0.4961267503,0.8105108449,-0.0183308239,0.2178890874,0.5524688509,0.5138926302,0.3057424067,0.4761248889,0.0152167747,-0.1841437659,-0.4136014297,0.8349636656,-6.8782478181,-0.1854706642,0.3037123595,-0.389126674,0.5097701068,-6.2518175989,-0.1782663099,-0.5785613473,0.5116496006,0.1067357963,-0.6316449787,-0.6632256142,-0.6044502365,-3.1297563152,-1.1871604275,-4.9659625201,0.4722158031,0.0770690705,-1.0806422477,-0.2856703513,-1.9987660339,-19.2216500424,-0.2685406826,-0.6628319027,-0.0045572681,-0.2915145785,-0.2711121128,0.4489072598,-0.4098756647,0.0049127451,-0.584691648,3340.9418224199,-8317.406731969,-42.3352434851,2335.9759063432,5614.1267380563,9486.0348012318,3302.348279314,0.6937988169,-1.0207646966,1.1951483122,-1.6706305297,-0.3011102136,0.0161090339,-0.0132833865,-0.5356457236,-0.5641758521,0.8898449144,-0.0430920432,10.8467168981,-1.5368411497,0.6119127462,0.7275408274,6.3597012122,0.768582318,-19.7642431164,0.2380516719,-0.3245182406,0.869312907,1.3651079343,0.1371096355,-1.1125042552,0.154742545,-0.8838831702,-0.1442170169,0.1332414629,0.7262273029,0.0295611153,-0.371063561,17.5333893273,0.6765594367,0.9047248157,-9.0949168668,0.8771127447,0.9992681094,-0.3668581872,1.1133869562,-12.9477072258,0.4022163332,0.5364586696,0.8595182003,0.4388483531,-0.7362336692,-0.8489096772,-0.7001064549,0.9657369521,0.7075168441,0.508208318,-0.57630532,-0.0180741289,-0.2005372353,-0.7096816304,0.3503574673,-1.4940347322,-1.0224644254,-0.4912979476,-0.2635352498,0.7844715259,-0.3158595052,-0.7620583159,2.1410704847,-1.0158112062,-0.1908046181,-0.3110692336,1.0154871706,-0.4865950352,0.3335798067,-0.7104404419,0.3588562865,-0.6046413577,-0.4018890823
biasActivation=1,1,1
[BASIC:ACTIVATION]
"org.encog.engine.network.activation.ActivationTANH"
"org.encog.engine.network.activation.ActivationSigmoid"
"org.encog.engine.network.activation.ActivationLinear"
