encog,BasicNetwork,java,3.3.0,1,1480886079545
[BASIC]
[BASIC:PARAMS]
[BASIC:NETWORK]
beginTraining=0
connectionLimit=0
contextTargetOffset=0,0,0
contextTargetSize=0,0,0
endTraining=2
hasContext=f
inputCount=2
layerCounts=2,21,3
layerFeedCounts=1,20,2
layerContextCount=0,0,0
layerIndex=0,2,23
output=0,1,0,0,0,0,0,0,0,0,0,0,0,0,0,0,0,0,0,0,0,0,1,0,0,1
outputCount=1
weightIndex=0,21,81
weights=0.2521434814,0.5204510771,-0.1968328943,-0.2088519622,-0.114398958,0.8127441107,-0.0196698259,-0.1747387273,-0.0492153903,-0.7982524664,0.7092729824,0.7267765346,-0.2071779863,-0.1518225891,-0.4500603425,-0.3173480649,0.170966438,-0.1843204664,-0.3213071951,0.0886836816,-0.5952416802,1443.5001905228,1156.2015180802,1011.9635064373,-1.9929244445,0.2706375727,-0.238261769,-9335.9603883079,-24327.1548313198,5765.047730579,0.6755359282,-3.1951066826,-0.8262783423,-66756.358913297,-102585.1214643437,13684.0822826133,1.4043149141,-0.5402020729,0.7005878983,-3068.6300685301,54679.1980512322,67.8909936657,-3694.2537249235,-19554.0238801582,4533.3114975235,-43417.3922910094,-57180.4685566213,9830.6478565707,0.8156419508,-2.4678217697,-0.9759428222,13.3373693727,-4.7397969765,0.3190494942,-13.6072235662,37.2272927972,4.529311705,1.8423094965,-4.0233973908,-0.9537700305,-0.6585143838,-1.3177608436,-1.1480820408,1.5176779694,-3.7618351059,-0.8816992737,102.369421762,-308.2263470235,44.6493764613,-1759.3998430375,72.8569416379,297.6414739541,358.6141974985,-268.6244404862,22.8933024622,15.7855024839,-30.7176649395,1.1228501019,-41.1339264276,23.6559685432,2.0911371836
biasActivation=1,1,1
[BASIC:ACTIVATION]
"org.encog.engine.network.activation.ActivationTANH"
"org.encog.engine.network.activation.ActivationSigmoid"
"org.encog.engine.network.activation.ActivationLinear"
