encog,BasicNetwork,java,3.3.0,1,1479760575616
[BASIC]
[BASIC:PARAMS]
[BASIC:NETWORK]
beginTraining=0
connectionLimit=0
contextTargetOffset=0,0,0,0,0
contextTargetSize=0,0,0,0,0
endTraining=4
hasContext=f
inputCount=22
layerCounts=2,31,41,61,23
layerFeedCounts=1,30,40,60,22
layerContextCount=0,0,0,0,0
layerIndex=0,2,33,74,135
output=0,1,0,0,0,0,0,0,0,0,0,0,0,0,0,0,0,0,0,0,0,0,0,0,0,0,0,0,0,0,0,0,1,0,0,0,0,0,0,0,0,0,0,0,0,0,0,0,0,0,0,0,0,0,0,0,0,0,0,0,0,0,0,0,0,0,0,0,0,0,0,0,0,1,0,0,0,0,0,0,0,0,0,0,0,0,0,0,0,0,0,0,0,0,0,0,0,0,0,0,0,0,0,0,0,0,0,0,0,0,0,0,0,0,0,0,0,0,0,0,0,0,0,0,0,0,0,0,0,0,0,0,0,0,1,0,0,0,0,0,0,0,0,0,0,0,0,0,0,0,0,0,0,0,0,0,0,1
outputCount=1
weightIndex=0,31,1261,3701,5081
weights=##0
##double#5081
   -0.2308653592,0.220796545,0.0624871734,-0.5520587663,-0.8947532103,0.6501558353,0.4005518277,0.3988385484,0.3685968489,0.5798912895,-0.9285463894,0.7581679046,-0.471497661,0.6099978944,0.9446213372,-0.5633517334,0.857314365,-0.6067486302,-0.1079649751,0.1710027416,0.8281562016,0.3780229102,-0.3647570844,-0.8524510769,0.9199553094,0.6518385598,-0.426838717,-0.0757929829,0.3190129263,0.763096246,0.9513391102,-0.5812712298,0.4853287399,0.3501607553,-0.0534371202,-0.9259722778,-0.4331277682,-0.8898814419,0.8150335661,0.3548685838,-0.7565786023,-0.6814922509,-0.6031130376,1.0188984347,0.8953756891,-0.8101340444,-0.7767468118,0.6158893494,0.2993879711,-0.805465651,-0.2643890734,-0.620910493,0.0849119014,-0.5735000575,-0.7182205424,0.772026729,-0.246083928,-0.3185152504,0.1271343227,-0.0486865467,0.2549868871,-0.1409240032,1.2290103774,0.8450052054,1.2779490986,0.7773830074,0.3613365311,0.1646499001,0.8738241236,-0.9395846184,0.6687167341,0.140495827,-0.7640764457,0.7436053732,0.5012387377,0.6222892947,-0.8685141338,0.5360148349,-0.9138646293,-0.8261777072,-0.8919119016,-0.968044898,0.0813748827,-0.4900390916,0.7233000064,-0.7290344232,0.1490106664,0.4310778863,0.3864528855,0.7740516571,0.2960084333,0.8188504167,-0.6595008006,-0.6664502016,-0.3064900541,0.9307411114,-0.0550416854,0.6920741346,0.3924816589,0.8584289273,0.8622904319,-0.8383813984,0.4451661999,-0.8130849562,-0.0370845296,-0.9736990213,-0.8332977338,0.6206842394,0.2482583684,0.2471549565,0.1812581692,-0.7788851412,-0.1659562552,-1.271987899,0.4060630531,0.2977624141,0.2794176066,-0.0581652782,-0.9690104699,0.4238494137,-0.3854767119,0.2945740572,0.2137101439,0.0183627343,0.3223103149,-0.6351274172,0.3196419134,0.2651791907,-0.6096192738,-0.8483717267,0.4921859373,-0.9050019023,-0.7467313102,0.359643398,-0.2243321722,-0.2407955273,-1.0702703338,-0.1304872688,-0.5436973616,-1.0090301094,-0.6905108824,-0.4095836955,-0.203016055,-0.4825863632,-2.4130291499,-0.6006681982,-1.2953678252,-0.6664731801,-0.408206717,-0.5362870798,0.6229365089,-1.2813893629,0.5219198968,0.0772315599,0.3413913706,-0.8786425405,-0.8410902523,0.5251875971,-0.9257102195,0.1291149774,0.4413564623,0.356838175,0.6351430995,0.2695762928,-0.8420666046,0.3726486432,-0.2064684954,-0.2224268256,0.138601491,0.06081986,-0.3895194573,0.9019088359,-0.7765438816,0.9413804518,-0.8002706141,0.1756331329,0.5866134147,0.1519428803,0.1405674117,-0.9119777784,0.0576093377,0.0195550376,0.3771372409,-0.5580836633,0.111011224,0.6798599271,0.1314707588,1.173230856,0.0917279913,0.1714544521,-0.9696219006,-0.4990017771,0.3533204821,-0.3724154181,0.2780936501,0.1328783862,0.2234552355,-1.3518197847,0.3935416222,0.8355377249,0.2236960336,0.4122153048,-0.5073824725,0.3298095429,1.0118482357,-0.324371807,-0.5965780475,-0.3825167509,0.2225928937,0.0498994854,0.6552641359,-0.8236887793,0.1278982681,-0.7426695846,0.9519144769,0.5799984426,0.6905756167,-0.0645912697,-0.2373452681,0.9149821199,-0.4334035293,-0.3762668173,-0.8259491548,-0.892290332,-0.2371427395,-0.4092296463,0.0649796881,0.2042257804,-0.1971837865,-0.373315679,0.8920992636,-0.1390540501,0.3408118197,0.4729485554,0.0919897436,0.036171171,-0.7216732321,-0.4057485945,-0.8614189295,0.7154576063,0.6337259158,-0.2916049544,-0.56344163,0.1957531842,-0.753241843,-0.320311017,0.7472450508,-0.3802561738,0.9645015824,0.7214282622,0.8888148302,0.137138389,-0.349643489,-0.8250140511,-0.015705366,-0.8166511527,-0.8856749796,-0.8014203138,-0.8042526953,-0.0293321263,-0.8426144724,-0.207397851,-0.320373539,-0.1953378802,0.8871566992,-0.0005976551,1.0481083015,-0.4665760419,0.4230798967,-0.2175209782,0.8723104979,0.8273325467,-0.0558320202,0.2334485497,-0.0037799314,0.7018679506,0.4324892362,0.3663040141,0.8667778552,0.9342342905,-0.9902320813,0.3835729079,0.2102298151,-0.486185114,-0.0264931383,-0.4769523724,-0.8656482992,0.8735883955,0.918071695,0.8222030157,0.4680547464,0.8665920154,-0.761598592,-0.466318482,-0.5309207692,-0.0948088693,-0.5975092009,0.7348804673,0.919022387,-0.1811796307,-0.732445275,0.278545848,0.5013269797,0.7909970572,0.4003727201,-0.3108918282,-0.0749755308,0.2303843276,-1.054589538,-0.3226942069,-0.7477205978,0.0626729291,-0.5938757171,-0.7775118051,0.5419308375,0.9283609368,0.632857741,-0.2203886704,-0.3182511242,-0.5918392034,-0.387723383,0.2908068536,0.2725710022,-0.5875292876,0.4712993634,0.5065782484,-0.2825038663,-0.260925357,0.1810293817,-0.9674543663,-0.6119103521,-0.0745523935,0.3565681933,0.2625201385,-0.1790886997,0.8813061191,0.911251213,0.6050007115,0.7104448408,-0.2323402511,-0.3219149541,0.7879150546,-0.6125039187,-0.3640128071,0.2727249691,-0.5653370218,0.392662762,-0.3056784368,-0.8028411791,-0.0425305188,0.0757831953,-0.791404748,-0.9377585382,0.9257259279,-0.0289495952,-0.4104600031,-0.1220188213,0.2622513604,-0.8989490261,-0.0381827113,-0.7498835035,-0.9077407421,-0.9573399139,0.6033576279,0.1856762956,0.8305571474,0.4352164268,0.629797274,-1.0127094336,0.1536048302,0.7625947944,-0.7846287558,-0.6466343114,0.8236413244,-0.8798074101,0.3670516237,-0.9658939163,-0.8039392002,0.9433893185,0.2601531059,0.1634254171,0.8325732375,-0.6518720722,0.8691695625,0.6793474197,0.138674051,-0.6771649351,-0.6777129982,-0.414802132,-0.177923161,-0.1703411391,-0.4278844953,0.5401046078,-0.5165662331,0.7236271678,-0.5728935783,-0.467164829,-0.7232668683,0.3545090697,-0.6300149459,-0.8136971933,-0.531369895,-0.0217516764,0.5872993109,0.1706583303,0.767746885,0.4899997593,-0.9509358171,0.2749930491,-0.3644304081,0.7833400251,0.0561218136,-0.0543515258,-0.3219312901,0.2016758688,0.3900183018,-0.0373326046,0.8057789694,-0.6229418955,0.0518557367,0.4175014061,0.1357837012,-0.9034603702,0.5113895353,-0.7170699813,0.5886556532,0.0089505688,0.4273637916,0.2418907354,-0.3614816487,-0.6236254857,-0.8589130138,0.2851265575,-0.4290842796,0.8745114203,0.1392542971,0.4552590348,0.5974697884,-0.1926330001,-0.949740965,-0.0241727862,0.2960108344,-0.8546807661,-0.1062644902,-0.3092063293,0.0261179983,0.4159760939,-0.3764462341,-0.9579578449,-0.5791730247,0.4570156524,0.6037279078,0.8466301463,-0.9699180978,0.5025315997,-0.960803365,0.2726554435,0.687452325,0.0032530735,0.9672913618,0.4830526118,0.4533719264,0.0048540034,-0.5112517563,-0.8756811694,0.7803962985,0.5528110395,-0.0072006833,0.7184143768,-0.3820476018,0.3045249255,-0.0390875455,-0.5030875868,-0.1960972494,0.256505359,-0.2014942802,0.4404318995,0.8193807807,-0.0429577532,0.1742289548,-0.6011587627,-0.252932433,-0.5866594482,-0.596471575,-0.8279012191,0.2382602364,-0.100772013,-0.1848825826,0.0887402786,-0.8812857584,-0.1299239539,-0.4431653684,-0.6184810441,0.0445414862,-0.4319358221,0.970529921,-0.9943757544,-0.5451267847,-0.8915289668,-0.2873055784,-0.1421523934,0.2175691138,-0.3166086935,0.5256674146,-0.3051692649,0.7262000933,-0.6611072663,0.2195049783,0.5613365454,0.9099999483,0.951241837,0.0078725283,0.1748591502,-0.8931216216,0.4446590209,-1.0850721335,0.2866459846,-0.2168400481,0.6313919926,0.7426316842,-0.7208290802,0.3971617839,-0.7000460519,0.2011887929,0.1733065177,0.2067832254,0.4074686028,0.5554942322,-0.5153017497,0.1641727198,0.9985183805,0.8336525092,1.0079472061,-0.3863112967,0.8631286144,-0.3700755209,0.8158290252,0.5038737907,0.4020006157,-0.1616267087,1.0136488735,-0.7865265906,-0.9315653142,0.2608123464,-0.6433719624,0.5912807428,0.0259624824,-0.1889033091,-0.5825209719,-0.0294064014,0.4940571767,0.4642506406,0.4361596147,-0.7187734189,1.4574071869,0.4142653213,-0.5558467025,0.1509031048,-0.5961838519,0.4897530535,0.0468218008,-0.8343758565,-0.5492665157,0.9912104454,-0.0772097199,0.6270279562,0.6763243897,-0.7454611283,-0.2772316043,-0.8369850467,-0.3900391624,0.710386334,0.6603920633,-0.4038504442,0.4717368386,0.2733056603,-0.8125856848,0.3472041386,0.081756703,0.3064003092,0.6654095162,-0.0725581672,0.347090473,0.1811431023,-0.2879678206,0.6593067949,0.4213108322,0.7350316198,0.0731262775,0.2332730279,0.6073516686,0.4741243406,-0.1421455337,-0.8059363761,0.5700691424,-0.0738510818,0.3124301085,-0.6679220887,-0.546064342,-0.1578265185,-0.1593513207,-0.3933696183,-0.7825840712,-0.5053761311,0.1363370466,-0.0483370675,0.3218646015,0.617362993,0.0094140253,0.5406001908,-0.0154579566,-0.8654944107,0.1653851593,-0.6438251517,-0.9095798928,0.2056750458,0.9689838452,-0.7839303008,-0.8431096788,-0.3905694784,0.7616711529,-0.3243068818,-0.8545557887,-0.0739806542,-0.583848467,-0.2672578485,0.9065568067,0.0167464003,0.5716100653,-0.445551353,0.286826823,0.8783980726,0.6923472914,0.9172985091,0.818347144,-0.7277394328,-1.2182957499,0.8608707733,0.3226717487,0.9392474036,-0.3655874979,-0.5892598106,-0.5742345813,-0.8536646701,-0.2714513624,-0.7690312034,-0.8061290389,-0.6890957922,0.1623128959,0.6770644315,0.1462673828,0.3196389342,0.7741449561,-0.1976443163,-0.6594162672,-0.8363296774,-0.4078850413,-0.0943435718,-0.9181140646,0.5853574142,-0.6570827469,0.2093088718,0.0407137891,0.1635637121,0.6161685557,-0.2501223151,0.9430683911,0.1451088111,0.9435069124,0.7301438425,0.6520013402,0.7161176943,0.1340667313,0.4695545029,0.1348985888,-0.5034904435,-0.865585555,-0.5092317523,0.8255587899,0.2063790377,-0.1451988608,0.3152780937,-0.3922111286,-0.5652153667,0.5433960185,0.5824069653,0.9085045557,0.4511542107,-0.6408615226,-0.5843761145,0.4502404468,-0.6334931514,-0.1139038411,-0.7130481393,-0.5799547776,0.235932498,-0.8920964218,0.2999802349,-0.6976370022,0.0719647027,-0.8775355662,0.1886527301,-0.9149900135,0.7168647334,0.7460604989,-0.4467526349,-0.4628378853,-0.7381973007,-0.0384436224,-0.9795640885,-0.6472735656,0.6781597269,0.063321789,-0.398624465,-0.3131386602,0.8180091589,0.3843517966,0.7325349802,-1.2389465009,-0.7153838515,-0.320351357,0.8224329034,0.2973876099,0.0144340404,0.2013266193,-0.0581596808,0.3310061432,-0.2729919583,0.6221498142,-0.4030294332,-0.4168433851,-0.0739199665,-0.1896955786,-0.7431994214,0.0433808778,-0.7001875808,0.3160895713,0.414431701,0.8145372688,-0.6474065581,0.8320636221,0.4497529238,-0.5638904927,0.6561066173,0.3694672329,0.8175687228,0.8564996288,0.0431648225,-0.5543759577,0.3877384224,0.1201917194,-0.3260630569,-0.7338045474,-0.6641667626,-0.0499112051,0.7044924076,0.5055692985,-0.2819619044,-0.4309328505,-0.321265383,-0.5706683571,0.622265758,0.3745487254,-0.7589424955,0.0638506035,0.2846363844,0.5318387682,0.9216899842,-0.582052257,-0.0988477124,-0.5321746856,-0.4248399452,-0.3677063955,0.7676187768,0.3043760122,0.2651784637,0.8589687632,-0.2455185792,0.4822478859,0.4636452223,0.9867751018,-0.8481990764,-0.685059574,-0.5551024786,0.3635685079,0.6168372129,-0.1354434964,0.0022009357,0.0224493918,-0.4971420015,-0.7650610636,0.9294334974,-0.136676374,-0.2135538786,-0.1642427188,-0.9843551622,-0.3268959015,-0.2022091656,0.9588463089,-0.7324974483,-0.4401829073,-0.8713082866,0.2635042081,0.0980748258,-0.1711220991,-0.3873629426,0.3162933494,-0.1302952427,-0.1543280127,0.9555861184,-0.2336178492,0.7408414992,0.0012060177,-0.7836637154,0.9564467141,0.7217252428,0.2746985678,0.1232535344,-0.4998038454,0.0226830062,0.0474604964,-0.5859873216,-0.9076888846,0.2664332273,-0.7360587457,0.6092205019,0.3868684733,-0.8022853584,-0.7366556693,0.1819540587,-0.3017214356,-0.943992312,0.0793428817,0.9113822036,-0.1965908765,-0.5180166565,0.7842263961,0.496722453,-0.6505158577,0.5404112482,0.1374028248,-0.7172642625,-0.6368506778,-0.2308554629,-0.372326001,0.7934076692,-0.3716248932,-0.3967298823,0.9551952142,0.172130843,0.4825368756,0.8264003273,0.3637958967,-0.0915347902,-0.6101326848,-0.8949902942,0.3321655857,0.3777227116,0.5706510844,-0.0263658373,-1.0127386854,-0.7004373569,-0.4996742899,0.5863634853,-0.3129743519,0.4820799934,-0.4532189328,-0.4062382618,-0.4841663329,-0.8187838854,0.8394213862,-0.3725900983,-0.9446812682,0.9140468784,0.6096191474,0.5414366913,0.8282596813,-0.9678859325,-0.8346919824,0.416141363,-0.780261157,-0.1107820973,0.2570649748,0.8395366258,0.8381381012,-0.6138097952,-0.351546729,-0.0873639473,-0.9915171988,-0.2773598117,0.6555355156,-0.393263435,-0.4076471888,-0.4283356268,-0.0583340979,-0.6691730956,0.6410064274,-0.6527156879,0.4438114726,-0.4647498382,-0.0590673445,-0.9520364385,0.8099432348,-0.7319967223,-0.0341773934,-0.113453783,0.144716667,0.3006237042,0.6248053862,0.7182271017,-0.8774202212,-0.4638802865,-0.8570098744,0.5439741879,0.666097133,0.7707718173,-0.8323671699,-0.4926387178,-0.9835612732,-0.4666954646,-0.1295422452,0.183206164,-0.6160476069,-1.1891704837,-0.5171769046,-1.0358915242,-0.0432476909,-0.7552552517,-0.1397426134,0.9299115282,-0.9365055544,0.1363869351,-0.1338327635,0.8344514269,0.1436099802,-0.3088645221,0.8315848077,-0.4568258442,-0.2680065121,0.8218601885,0.9954796667,-0.2030352316,0.4479928336,-0.6619561919,-0.7780087503,-0.3905447467,0.1837264634,-0.7815879768,-0.5526940008,0.8378989822,-0.8515360704,0.6858559112,-0.5972248303,0.0886862791,0.7422767764,0.5716762827,0.74744837,-0.5466319184,-0.0794958431,0.1717683574,-0.5434792514,-0.5874000777,0.8769519726,-0.8635294736,0.4744871541,0.5586776617,-0.4662796415,0.9967971241,0.6504053251,0.0627421837,0.425986529,0.8506119215,-0.3795071557,0.8515726802,0.1096451889,0.2093739924,-0.5313108343,0.5315542104,-0.3981345422,0.9552039578,0.0074751125,0.5293904289,0.3088300199,-0.1233392951,0.0248812777,0.5854011183,0.6893949831,1.001196712,0.2275339113,-0.3210570785,0.862394684,-0.0235820957,0.6937361167,0.8632179474,0.1619112511,-0.5279201611,0.7130541647,-0.9505318395,-0.648317468,-0.9083873826,0.5924754536,-0.7829374063,0.7672636509,-0.5694463193,0.2263239485,-0.1942351694,0.4326741314,0.3085973229,0.7300532491,0.7750541987,-0.5846195043,-0.0962571839,0.0588264928,0.9241206647,-0.7544224072,-0.0194833696,0.1750823063,-0.3813341643,0.8676860664,0.4817715582,0.2027992461,0.2614968025,0.6712760826,-0.6362047695,-0.3600596753,0.8371401309,-0.590826373,0.5110546724,-0.8953677116,0.6837300765,0.0944495813,-0.6453838741,0.3647903797,0.4392930969,-0.3482050105,-0.384779909,0.2106663308,-0.0508254127,0.3945966617,0.4149496512,0.8897523856,-0.3296782223,0.6538773376,0.0933208957,-0.0301543169,-0.5321799202,0.5729429367,0.9360319867,-0.3056952324,0.8424594557,0.4489616718,0.6690391248,0.1369340551,0.3423416188,-0.7563060116,0.694286448,0.2684521577,0.3061774096,-0.783684992,-0.2975433733,0.4991547062,0.2508861078,-0.1487511991,0.3437501641,0.6970360184,-0.4216285099,0.4658937768,0.9715863976,-0.6206611239,0.8126023794,0.0125473616,-0.3300435752,-0.4565739126,-0.2030955103,0.3413407565,-0.8886506024,0.7368397185,-0.5327954006,-0.1787128009,-0.5427778714,0.660682031,-0.9941755301,0.4287131582,-0.0011234916,-0.6296478789,0.8355803856,0.3095506949,-0.3210185496,0.3160750747,-0.7874192038,-0.403505572,-0.131217928,0.1266153517,0.7568783947,0.3955157099,-0.0554944203,0.528488619,1.0034419876,-0.6497372517,-0.1317095554,0.80626916,0.2953451425,0.2874875043,0.1224560718,0.4135076414,0.8870246366,-0.5480519186,-0.2473932892,0.5803120953,0.2344347984,-0.0439106051,-0.1750685538,-0.4928716302,0.079726139,0.868349034,-0.2523880864,-0.1073137218,0.5353289966,-0.6103905915,-0.5125886074,0.6217286506,-0.8442536962,0.9116823842,-0.7122154634,0.8203028252,0.3338430891,-0.7156068698,0.7369346169,0.263787066,0.9150046858,0.019497841,-0.5059342034,0.9306703845,0.3954362016,0.3139773035,-0.3028829423,-0.4707684827,0.6741705901,-0.1693224705,-0.6628134846,0.7689643704,0.9081910636,-0.2055255046,-0.400322744,-0.2402310188,0.9771397604,0.6465649844,0.179143533,-0.4172899021,0.1993075925,-0.7553611139,0.9179238181,0.7538258916,-0.1712519303,-0.0125472046,-0.2548262654,0.5394785722,-0.6073100767,-0.8784863131,-0.3535203832,0.5304785108,0.1203914946,-0.5739184585,-0.0816858716,0.4818331252,0.2624524387,0.0545734391,0.9289228983,0.6156172835,1.7364043737,0.8563887555,0.9226015842,-0.0554530795,-0.5773932984,-0.4951630447,0.0059768667,-0.9375073409,0.2239766897,-0.1355213774,-0.8884812638,-0.7804866131,-0.1203355727,0.6307478551,-0.7920115809,-0.8668142587,0.9776677396,-0.9022953016,-0.5246507653,-0.1399169227,-0.4285388262,-0.1224050373,0.5853653156,0.3589764005,0.8067454516,-0.7592158268,0.6257189075,-0.6440824687,0.6847861394,0.2852165062,-0.6351893275,-0.203580629,-0.4442583629,-0.6233873858,0.4827533521,0.728727382,-0.1434188405,-0.9856033856,0.7801174167,-0.4694024907,0.668759674,-0.9086081125,0.6576246629,0.4072948198,-0.3874643469,0.0675998314,-0.5525430809,-0.1698379059,0.1392063214,-0.6433589431,0.2469096171,-0.6275467458,-0.4921952018,0.8729240148,-0.1413702435,0.5452109026,0.5325520432,-0.3146519524,0.0869237951,-0.1930660574,0.5659566908,0.7645326665,0.3874843177,-0.6096307379,-0.6313681785,-0.8234229238,-0.9535861001,-0.2553146621,-0.3684094678,-0.7355648086,0.6369981521,-0.821647209,0.7926676443,-0.2919459731,-0.8777189267,-0.3241009439,0.8416851451,0.9137649101,-0.8573104651,0.9651467079,-0.2673039922,-0.859262153,0.3953814341,0.0212480266,0.3216508454,-0.7040694857,0.9244313927,0.6202386951,-0.4612687392,-0.8755228124,-0.9528310001,-0.8147196951,0.2398208583,0.4924840892,0.6823887732,-0.4323653827,-1.0280516436,0.3891275038,-0.9038306451,0.1695910932,0.5742341378,-0.0862229289,-1.0220484424,0.1288328341,-0.0570597803,-0.7265782634,-1.0370241103,-0.7872954101,0.7426500354,-0.6044903723,-0.5559351434,-0.4150814184,-1.0133155622,0.3622664814,-0.5432239787,-0.0980377761,-0.1223908683,-0.5362542444,0.2104808106,-0.4226360308,0.8598785784,-0.3467676997,-0.9082721784,-0.9301030776,-0.912150983,-0.468825433,0.3086998729,-0.8807860347,0.194153903,0.1362065605,0.2813683059,-0.6307926997,-0.7436412239,-0.0804179897,-0.8138226482,0.4293757827,-0.2760530302,0.5301848876,0.3967340345,0.0715512892,0.1842623427,-0.8270493244,-0.5143980323,0.2069996477,0.4448024457,0.2264384073,-0.3166327373,0.4893794829,-0.29222219,-0.8687880663,-0.9256675776,-0.6118190155,-1.0727709289,-0.0746930826,0.1104898676,-0.6669040999,-0.6223766042,0.0213516308,-0.2434917549,0.0534214693,-1.0912885661,0.5009919403,-0.8839696775,-1.2066178601,-0.2144272462,0.2634354808,-0.5295950457,-0.3069882254,-0.8472989848,-0.4311197289,0.0607888698,0.0187113633,-0.4670732934,-1.1974365635,-0.9405923256,-0.6373966771,0.3526475889,0.5481137145,0.1310054042,-0.9897645406,0.3108968824,0.3837571158,0.2574790539,-0.4412271932,0.5841449874,0.5480059467,-0.4755441322,0.210080845,-0.690129996,-0.663126201,-0.1780194098,-0.7177128369,-0.0756842427,0.3274033514,-0.2807077216,0.1314625286,0.2400601507,-0.1489337344,0.3388515639,0.5459337389,-0.5143169762,-0.6973015032,0.0582184234,-0.6338886808,-1.2856982489,0.1746243193,-0.4512912547,0.613024746,-1.2607862065,-0.8985872921,0.6497028709,0.4136882446,0.557116278,-0.1703581992,1.4509808927,-0.8549746356,1.5473035094,-2.7732839916,0.8940040011,-0.1765779771,0.740822592,1.0675187331,0.9999255196,-1.9228091854,0.3935519539,1.3986920155,-0.8276518792,1.2965664073,3.404131471,2.7141925218,2.7927662635,-1.5812218043,-0.4327754617,-0.5968081532,1.5396069579,-1.067784935,-1.7865608782,0.2494273153,1.7097772952,0.2544039635,-1.3157513582,-0.1082472957,-2.2389175256,4.9686860419,-4.4901595091,1.9969345017,1.3308992026,1.8446885334,2.7948546392,2.2403555981,-3.1794866702,0.172354739,-4.6389016095,-0.7774209944,-4.4964036819,-4.4781199972,-0.9444715914,0.0452343827,0.2357870585,0.3256965435,-0.8045636307,0.0158882176,-4.1790560061,1.5593434801,3.1199707798,-0.5094458839,-1.4398910445,-0.9419037301,-0.6732913434,-2.5072939623,0.2758284857,0.9158669398,-1.14612709,1.6132123158,0.3139632136,-0.0566501922,-0.816948107,0.6021362024,-0.4549354242,0.2138434136,0.5115044491,-0.2569191531,0.0535917392,0.4719574832,0.0154473705,-0.1402739148,-0.4147167593,0.4656400485,0.5939554605,0.4043460435,-0.050686179,0.8747131818,0.5925408023,0.5450938015,0.1832673854,-0.0396915572,-0.5039968906,-0.3258239918,0.658502904,0.9421806923,0.5310510173,0.1603394329,-0.5990974394,-0.9323661986,0.5422537821,0.0125471531,-0.915027201,-0.5675440547,-0.8409911654,0.6786602044,-0.2746150828,0.3783161579,-0.0064333695,-0.8182725537,0.4788293794,0.6450806371,-0.36771405,-0.8326302867,0.7683221036,-0.8368771248,1.1007730039,-0.2938758895,0.9929833414,0.7557065883,-0.5469759402,0.6508050028,0.4872147406,-0.0438940823,0.8185210789,0.1464839103,0.2061273564,0.6779148351,0.5024367435,0.6250694744,-0.0967690094,0.4869707438,-1.1084825021,0.2571386735,0.6494125644,-1.1999634949,0.2641239719,-0.8963115045,0.6880966133,-1.0086342763,-0.1055766772,0.1932465025,0.6967495158,-0.6579340126,-0.5878217237,-0.0299412039,-0.3760441576,0.5127969508,-0.3858537452,0.1212587809,-0.4110419452,-0.2660425233,-0.7777017536,0.3278657427,0.3032989933,0.7063144913,0.5534562035,-0.1063403553,-0.7782596238,-0.036611754,-1.2223659357,0.0577036349,-0.8882024899,-0.6482702774,0.4613107559,-0.7352699443,-1.0088053372,0.3359412728,-0.7108597709,-0.0480938194,-0.3222943477,-0.0448948223,-1.6176856437,0.2725953471,-0.6694889093,-0.4212439303,0.4021231557,-0.9226434747,-0.605995647,-0.2813852901,0.6328326393,-0.3892788796,-0.8319268818,-1.1330425839,0.4482552779,0.2668683303,-0.6480699121,0.1092706235,0.6216039709,0.5001426136,-0.2129942531,-0.0870415261,0.0242289221,0.3227278096,0.2608136021,0.0807451898,0.8890379137,-0.3957449504,0.1972710748,0.6903580541,0.4069369932,-0.452353652,0.4256249471,-0.4340738397,0.8172656907,-0.5862654909,0.0489053046,-0.3763304921,0.7536612803,-0.5222533748,-0.5388951975,-1.0188694309,0.7116603852,-0.2872746885,-0.1451334428,0.8567127135,-0.9117455983,0.85605446,-0.762480358,-0.5289454021,-0.4469054008,0.257963637,0.6279258977,0.8089922862,0.6722965958,0.9527293558,-0.2337148566,-1.0768769415,0.8112120505,0.7597853612,0.8028920007,0.3528522361,-0.4491095054,0.4103308146,0.4744390434,0.5627780334,0.5960481066,0.3597266903,0.6578616244,0.3032960667,-0.5754262782,-0.7820453843,-0.4831856881,-0.452608903,-0.8602063029,0.4934512084,0.5585369637,0.571181193,-0.5543175809,0.0800548631,0.9101698734,0.4484486596,-0.856374954,-0.242939416,-0.3702334133,0.3287152775,-0.1477708312,-0.8899658797,-0.8445783917,-0.1731407882,-0.1691510676,0.2837734943,-0.8116670194,-0.1927010283,0.4157444739,-0.7370810819,-0.4906783661,0.893141725,-0.5319001308,-0.4808169959,0.4580667891,1.0221176852,0.4996934266,0.3264810843,-0.2235249656,0.4763969156,0.0242286328,-0.1016939535,0.0275401481,-0.3650558317,-0.4635867393,0.0025128949,-0.7146713646,-0.4937462226,0.4963936158,0.1350830853,0.1394954458,-0.8203481785,0.4738474776,-0.66468901,0.6845560039,-0.6839373401,0.5354114349,0.4941768539,0.9232916696,0.4412809735,0.261044366,-0.0109399639,0.9103337801,0.2744592014,-0.2965032112,-0.5625530521,0.8741082133,-0.9237125391,-0.845895955,-0.144674792,0.2924032484,0.8201339706,-0.9127536779,0.9909387234,0.631627497,-0.6719282561,-0.9221523248,-0.0994408464,-0.771513289,-0.8844052883,-1.9361465283,-1.5183901248,-1.0658864389,-1.6936368843,-1.7897828363,-2.4920779058,-2.5537515118,-0.7752047208,-0.7086551922,-2.5495608372,-1.6422675505,-1.8587470008,-1.4779922941,-1.0345412933,-1.4190579761,-1.7908331427,-0.6980364047,-2.9210765071,-1.4222060496,-1.4680393195,-2.9932003872,-0.6180026229,-1.6690140827,-2.0734411628,-1.0809584704,-2.3488136958,-1.6195106916,-2.5838135732,-1.1416511182,-1.4880415083,-0.8198515332,-1.0287380888,-1.0407006777,-1.9449120746,-0.9192859366,-1.9283517899,-1.2946357887,-1.9539225543,-0.9045508271,-1.4858188271,-1.5662690892,-1.4259426979,-1.4385438545,-4.3340863285,-2.0160588952,-1.2572983814,-2.440983966,-1.221942031,-1.2612967217,-1.1126297656,-0.6454616702,-2.3139624319,-2.4091776816,-1.1580358151,-1.7591718256,-1.5812709117,-35.4796046494,-1.6674446773,-1.9203019345,-1.9932976522,0.5188817359,0.5396337367,-0.9347577962,0.1789794594,-0.4703413219,-0.1212619937,-0.9018171728,-0.9706725646,-0.1347127864,0.9244938083,0.2736339802,0.4914354923,-0.2525469705,0.5239915823,0.3201308615,0.633147245,-0.6541395912,0.4922478661,0.9066563773,0.7349448297,1.001802874,-0.1891686107,-0.529981724,0.8884204442,0.5953224808,0.8828342721,-0.3114886205,-0.7541003649,-0.0199357206,-0.4616021858,0.520209241,-0.4126018252,-0.2305560798,0.2263278842,-0.5161894998,0.7645000798,0.8617952766,0.5198605223,-0.3718060739,0.5503997138,0.353533615,-0.7567397733,-0.4213493651,-0.8379061961,0.4345750654,-0.2822159038,0.0277475217,0.1213747716,-0.745380079,0.4087427266,0.0205146646,0.4081526996,0.7541515461,-0.1058247133,0.7090423703,-0.7130409624,0.2391211995,0.3011676089,0.7150942115,0.581321095,-0.1005385949,-0.5577838139,0.4664387329,-0.6048230207,-0.1612871372,-0.5534723517,-0.9458614568,-0.3418643667,-0.715779615,-0.8929831739,0.1489869179,0.7744311718,0.7619183452,0.1723209266,0.8470448756,0.821522612,0.6174525093,0.5580940373,-0.8574619313,-0.177982476,-0.7092172406,-0.9677394483,-0.8527641317,0.0993622846,-0.6195102825,0.457847492,0.1466933754,-0.9012436844,0.3209182144,-0.1948857871,-0.6595555379,0.1482058926,0.3979286128,-0.6513669349,-0.4578397254,-0.2214156984,0.3748001608,0.4821808294,0.8433095305,0.9037602456,0.0529872273,-0.3601140282,-0.5957683162,-0.0032770916,-0.1195346929,0.38424666,-0.6402787398,0.734071752,0.5128277723,-0.5689780674,-0.8136360935,0.8776955104,-0.1095105044,-0.2607253768,-0.7206661242,0.9237473913,-0.6907431796,1.0150148381,-0.8600183986,0.5197414129,-0.7963684973,0.9003427405,-0.2614488428,0.5729747081,0.1240290901,0.6672773151,-0.6697217526,0.1719701919,-0.129961357,0.8739136557,-0.7569866869,0.6020791114,-0.6804834445,0.8681015677,0.5249851941,0.9193348041,0.8582244188,0.4323952187,-0.7273512365,-0.8217817657,-0.2922197478,-0.4870889934,-0.5356686564,-0.3566845206,-0.8523347944,0.3521698617,0.298596265,-0.9931964464,-0.8939472246,-0.6260885289,-0.8297157883,-0.8987630764,-0.9298531067,0.3863862395,-0.2228083995,-0.1357843744,0.7303010365,0.0006361016,-0.0933763318,-1.0426183846,0.450303589,-0.6892150887,0.5605896108,-0.2327020616,0.0773177825,0.1516982702,-0.4581064141,-0.4644286622,0.4252749582,0.601601766,0.2946831623,-0.4747996817,-0.8952455863,0.9075766806,0.1514996312,-0.5682701246,-0.4213289855,-0.8947816247,-0.9541950335,0.0203130326,0.222488569,-0.9172842856,-0.995326594,-1.0815341746,0.0208395615,-0.0219908386,0.306460366,-0.667373447,-0.8673039964,0.3928416212,-0.3680421553,-0.4343298355,-0.5003431864,0.30845028,0.5266237029,-2.0904952119,0.4290594681,-0.1256041761,0.7449279746,-0.3124230095,-1.1279398208,-2.7977648025,-0.9268776822,-0.7523452369,-0.9926228227,-0.2882499125,0.8047785158,-0.9007282891,-1.1174352353,0.5352478938,0.4673266054,0.3916787982,-0.9948047031,-0.4745334072,-1.1028415646,-0.6562857826,-0.0575712811,0.7568168581,-0.3463853606,-0.7253904396,-0.9638551305,-0.6673511919,-0.2305485237,0.2259454436,-1.1241714781,0.3363119834,-0.4970680779,-1.5156545093,0.146311703,0.3638998292,-0.9199253919,0.7109898532,0.4776110342,0.2343055414,-1.022659123,-0.743695181,0.5473955393,-1.0116321317,-0.8209101609,-0.5435343105,-0.3312227798,-0.478662188,0.7411072186,0.5283226802,-0.8014844393,0.1574892286,0.856874699,0.7478638304,0.109126755,-0.7376986924,0.795153986,-0.8323111823,0.5384883863,0.2796802471,-0.811060326,-0.4245215903,-0.0652630854,-0.6295419449,-0.5938613213,0.0295743291,-0.8929389487,0.1164950655,0.6668444411,-0.7409600262,0.1506922316,0.7037972025,0.1391881721,-0.0353469133,-0.2703023998,-0.2996034497,-0.6574764417,0.8248296405,0.3777661089,-0.0847371374,0.6441520208,0.9740061922,-0.8336931812,0.1884724375,-0.8546748366,-0.3279984077,-0.7785800131,0.0600930789,0.2898115133,-0.6701788117,0.4575612161,0.1155355913,-0.2998354055,-0.3678095665,0.6202692563,0.5644893092,0.8388450116,-0.187808892,-0.3733221835,0.2919086824,-0.363155787,-0.0254940484,-0.4328087864,0.2943772663,-0.8240956188
   0.0313726652,-0.9557117018,0.2666193811,-0.4881851513,0.0602522941,-0.2561928489,0.1961612751,0.5713489856,0.275678768,0.0072807461,0.9547827952,0.9493728374,0.5724478943,0.3244977257,-0.4904144043,-0.3972707119,-0.8976178095,0.812657271,-0.8054484318,0.4334856482,-0.0376601306,0.3930620956,-0.711012,-0.0915616348,-0.4898779111,0.0580595873,-0.7193706366,-0.2711683925,0.996207288,0.9414524752,-0.7248301619,-0.3846596529,-0.7592258171,0.9716180233,0.1965935187,0.4802020828,0.9297103582,0.7384711267,0.6741792967,0.6083947013,0.8378988376,1.1164472828,-0.5799587398,-0.5081321776,0.0680516991,-0.2883642509,-0.377897026,0.4745533155,-0.4494927059,1.0095494858,0.5229851679,-0.461570306,-0.159633671,-0.4713769701,0.4249605515,0.7955165496,-0.7684449814,0.3990130925,0.0662949948,-0.2543460636,-0.0063590522,-0.5148162571,0.3291662062,0.5924188517,0.728869148,-0.8131021336,-0.2886339119,-0.7695690788,-0.9753798265,-0.9791761557,-0.5187078144,-0.3879397826,-0.0390685699,0.4437042372,0.8526761111,-1.0124714258,0.2925843124,0.0161440494,0.6891547738,-0.378402273,0.6020600788,0.8064786345,-0.0379463851,0.9064015884,0.8966901739,0.4405880609,-0.7968518022,-0.7780288774,-0.7741306966,-0.8052772162,-0.1644847237,0.7492297603,-0.2392503973,0.9044446023,0.0779780176,-0.102233598,0.8747018703,0.3589136114,-0.0638216256,-0.1204570835,-0.2687660463,0.2447768237,0.4420145883,-0.9778338475,-1.0337661278,0.5230537053,-0.8520498578,-0.5579495781,-0.8418211594,0.4180573249,0.7169269066,0.358904245,-1.0189335775,-0.1919728887,0.9081169057,0.6039042562,-0.0929255479,0.7633407392,-0.6156685949,0.0380811535,0.2010555546,0.1405946352,0.2192044933,-0.6779918619,0.7049192126,0.8624884161,-0.8301026721,-0.1709428207,-0.8034679427,0.4774288662,0.3708291574,0.2499647685,0.3273127948,0.2828326758,0.5095957146,0.5192050929,-0.3183020313,-0.1089794972,-0.3515817483,-0.1971598462,-0.8342731831,-0.9181882659,-0.6484840311,0.0404486759,0.6037057822,-0.3833874548,-0.2409892324,-0.4455576405,-0.097043537,0.617052612,-0.3259263922,0.1355222904,-0.2206933339,-0.6772763744,0.9105569182,-0.0542795626,0.2860816552,0.177364862,-0.1364233097,0.9332312363,0.3395153858,-0.5381985443,-0.1151219755,-0.62699554,0.3961350245,-0.4556103934,-0.0927000882,0.409142063,-0.8004558444,0.4755542413,-0.3734708503,-0.126944028,0.1765105948,-0.0134522097,-0.3422157834,-0.3112876524,0.7049423659,0.5498845858,-0.8254979246,0.9916099666,0.7353851435,0.7062117742,0.0251304376,0.190781418,-0.1499605419,0.8688423951,0.065134063,-0.9643623649,0.1604274983,-0.0411079844,-0.5438426027,-0.9689684673,0.3818430845,-0.943406482,-0.3158073459,-0.7804377045,-0.132662366,-0.054808499,-0.4308084174,0.1992636918,-0.1051477049,-0.6252668627,-0.334876287,-0.7585569775,0.2762918764,-0.8415423828,0.6626249684,0.3459104651,0.9992229082,1.0177763244,0.5784314674,0.6462856669,0.2860231363,-0.5675693819,-0.5420379766,-0.9336864175,0.0168103983,-0.7040786097,0.5470715905,-0.898057894,-0.9567336865,1.0372302296,0.3571142452,-0.5731781396,-0.6602877467,0.0862957691,0.1181840932,0.3589376125,0.4993959911,0.1029020788,0.3752660446,-0.0845529992,-0.8813322002,-0.2264789321,-0.492314353,-0.9185604931,-0.3758957744,0.2222492689,-0.35904731,-0.7375059581,0.2685368714,0.8519454693,0.3221534777,-0.8204620069,0.9758650773,0.514898161,-0.0470848953,0.5155885794,0.0551973583,0.744063918,0.9837707539,0.1083378131,-0.3496111501,0.1314200429,-0.9703305378,0.4185506031,0.4675760407,0.9372828529,0.754530613,0.203906264,-0.011912018,0.0009648728,0.3572758909,-0.909254912,0.0261789194,-0.3532875636,0.9706523249,0.3682450388,-0.8266902845,-0.3337168048,-0.719064504,-0.8794487388,0.9076675361,-0.6413765008,-0.394196704,0.5999814366,-0.1619398224,0.9663800093,0.9409334119,-0.4693728211,-0.1918877397,0.806173929,0.773753252,0.8452474363,0.9266945341,-0.1800700247,-0.5689640872,0.0464046693,-0.8109612893,0.8547466588,-0.5068642303,-0.8937639091,-0.5843229807,0.9062945419,-0.9752051423,0.0418774011,0.2218976736,0.811228743,-0.3819945007,0.593494531,0.3323324563,0.0418431364,-0.3497362479,0.668068384,0.4230150925,-0.2355122336,-0.1585696694,0.2879023964,-0.4168455535,0.3149049622,-0.3212164498,-0.5495349089,-0.208622381,0.7890410058,0.7839618458,0.2862645489,0.6250004439,0.1313280252,0.5626765426,-0.9376942424,-0.2787010497,0.5801953152,0.4920895469,0.1221873996,0.9229211756,-0.7491448325,-0.800864272,0.0411861061,-0.1735445864,-0.1172000489,-0.118850532,0.4464830351,-0.5842468545,0.9516008324,0.5810835719,0.7140280174,0.3471495318,0.8512955262,-0.5414630197,-0.5170581565,0.3815062042,-0.3042730809,0.4727806133,0.5013951698,-0.0684825443,-0.2924444227,1.0132568404,0.4455240415,-0.2071062045,-0.5510817316,-0.7217420908,-0.196458743,-0.6864265889,0.2501393439,0.5073682679,-0.0767652288,0.2196944009,0.6329101441,-0.7600020308,0.488737297,0.7051969953,-0.4437937075,0.4940398434,-0.4250371618,-0.0230637454,-0.1165538746,0.500453467,-0.3699980144,0.3808761747,0.4756950326,0.7582951901,0.0109480666,-0.5021791169,-0.0398916331,-0.8866999347,-0.1283191832,-0.0666478467,-0.5007348754,-0.6951006793,-0.9114306861,-0.3507327044,-0.2863585117,0.4954863005,-0.7588531812,-0.6834099372,-0.8554523038,-0.2967066502,0.6785192022,0.5696750496,-0.0645809203,-1.2544764909,-0.3184499167,0.6823490149,-0.4452609118,-0.5815969172,0.2622276895,0.2900672228,0.0237678099,-0.5542049796,0.5423546752,0.3471585908,0.4195483793,-0.1084392615,0.7704449053,0.3716438088,-0.4193366761,-0.7681694225,1.0343000622,-0.2585536183,0.8179269598,0.590162167,-0.5366473349,0.8942522341,0.0160116191,0.0470622115,-0.1243050974,0.0965746352,-0.8190134085,-0.4364412383,0.8457611438,0.4944080314,0.9744961191,0.0312832366,0.8777401849,0.3195828854,-0.8957711533,0.9682732184,-0.9137211785,-0.0779155125,-0.9459026992,-0.4907789257,-0.6651766125,-0.7835072183,-0.8369315211,-0.7697123742,0.9662155485,-0.2028387032,-0.8484454847,-0.7664327824,0.1690775818,0.0577758642,0.2931194348,0.4892597307,0.5615295091,-0.6378383548,0.7243636816,0.9615109801,-0.9753656524,0.5169089006,-0.8597724743,-0.8378245265,0.3133599413,0.0056798201,-0.0770522482,-0.7035362388,-0.0823011028,0.7231981242,0.9897878891,0.1386682455,-0.8469749238,0.9184223322,-0.0219201639,0.5298122069,0.9738084874,-0.1924615316,0.6447601925,0.3341954494,0.8319956362,-0.4330974634,-0.8024592754,-0.6571024554,0.272293234,0.3415054837,-0.4902670196,0.6663704366,-0.2207849963,0.6596970522,-0.5007082799,-0.4012377402,0.5319119644,0.7726613222,0.4658522869,-0.3580840195,0.9893245275,0.4407245301,0.2717712442,0.3264865549,0.0626291215,0.9188191149,-0.0913328665,-0.2326842959,0.9870784972,0.2555453393,-0.6399389967,-0.267148896,0.3253869407,0.4051868281,-0.8607666952,0.2521642055,0.3370790388,0.6522170524,-0.5713313487,0.0472557937,-0.5091001854,-0.0086405644,0.8375368478,1.007656979,-0.19814139,-0.0529182246,0.0635665481,0.0345612369,-1.0145967687,-0.6258661806,0.9161579925,0.5249584579,0.5816729224,-0.5352853698,-0.3748598852,0.6354003913,-0.9919567067,-0.1255729214,-0.3397932343,0.8988575302,-0.0920586297,0.541807898,-0.5638599828,-0.6594195981,-0.5577550404,-0.7655765754,0.7780752861,0.172189977,0.3238419818,-0.6636249666,-0.9953170816,-0.3784308901,0.8205280983,-0.7074698714,0.4010753309,-0.3578700783,0.3241287256,-0.0251612433,0.4866753545,0.1865935016,-0.8592016273,0.4488123574,-0.0506809002,-1.0085083841,0.273425384,-0.503025857,0.051107953,0.1532161709,-0.307478901,-0.4304853724,0.3083913356,0.8456147099,0.6864980133,-0.1304448274,0.4344086756,-0.110360598,0.1252503419,0.3570343091,-0.0661215146,0.8852423341,-0.1134056028,0.4585039323,-0.8352508622,-0.0119437315,0.0502480326,-0.3923353843,-0.3224481687,1.0101244967,1.0015910982,-0.4665066179,-0.5433333045,0.1007781736,0.0623657698,0.7056204425,-0.8062764883,-0.4362238888,0.2928121763,0.920231258,-0.5162645656,-0.8766505498,-0.0403833933,0.1500328533,-0.6775034942,-0.9213085692,0.1963752446,-0.7210436955,0.8294139221,-0.6798653665,0.8750407234,-0.2689870865,0.0498554912,0.1518734095,0.5822640202,-0.8051836716,-0.4659083169,-0.5200676857,0.3034085414,0.9972645519,0.8323334648,0.2180503372,0.5865601477,-0.7088272057,-0.2981729271,-0.5695766247,-0.1027379483,0.1090915816,-0.4326270029,-0.4580357033,0.5871135579,-0.9451930771,0.2387799127,-0.3788571192,-0.5839394962,0.43757484,-1.0087599229,0.8976874013,0.8376367016,-0.9946623748,0.8140564118,0.2877931212,-0.2403979484,-0.1253437876,0.2291807546,-0.52301133,0.3734158766,0.2296283416,0.5819372015,0.5922863218,-0.4641818369,0.012697722,0.7483415096,1.0044482767,0.1835828622,0.0222901633,-0.5396740314,0.4383209416,-0.8213638238,-0.2587581954,-0.8839365074,0.6356484652,-0.8137637086,0.2706466761,-0.8426247439,-0.1549360781,0.0741507218,0.9135391836,0.5424508745,0.6057344877,-0.0078589826,0.8532934134,0.758521052,0.290498377,-0.7497995572,0.5913825914,-0.3996527514,-0.5824937492,-0.5504400253,0.4872128824,-0.2834295175,-0.6817654046,-0.0736624344,-0.6709762237,-0.3065469646,0.8806077023,0.6602402581,-0.0892527163,-0.7925276924,0.8984662064,0.2207485426,0.7462431389,-0.0345573229,0.0437360719,0.7105011169,-1.0094860082,0.6377915313,0.930364099,-0.9624546234,0.3715860763,-0.7121126186,0.0782524777,0.3245447667,0.692231772,-0.3324239933,0.0606037954,0.205027944,0.0206530741,-0.9603896521,-0.2198143862,0.38963621,-0.8858376038,0.5887102393,-0.2073759853,0.7454289036,-0.1353054332,0.7741389364,0.8476003935,-0.0047577322,-0.5098608235,1.0157288956,0.7618441518,-0.5416736784,-0.9751482695,-0.0531559768,-0.7849412125,0.525102961,-0.4983990222,1.0059423414,-0.1858977242,0.697180108,0.0550956679,-0.9515981833,0.8180092408,-0.7831645003,-0.1676220703,0.0833183895,0.0549185745,-0.8538025089,0.0888987787,-0.6863355496,-0.320440558,0.7536896904,-0.3312665643,-0.4080594999,-0.4443827068,-0.3706296892,-0.4956968537,-0.928162147,-0.2633261751,-0.5037232925,0.0442697979,-0.5739483227,0.463124491,-0.9150564464,0.4586907131,0.5086561513,-0.9486729512,0.9137459379,-0.0071003449,-0.7628427099,0.0825440577,-0.730516668,-0.2017798314,0.7163886024,-0.9575501812,0.1184710292,-0.9301148952,-0.7772192669,1.0567818071,-0.4547715113,-0.232454877,0.7880324104,0.1708849016,0.9008291859,-0.3741424762,-0.3518142541,-0.8988506782,-0.5938206003,-0.1528861602,-0.9415857461,0.5575934282,-0.2248435059,0.5771478916,0.0046316122,0.1922162758,-0.5368547301,-0.7119758328,0.5356649557,-0.5162403434,0.9197195928,-0.9715152357,0.362615743,0.2498329153,-0.6987464409,-0.2170520661,-0.7182889284,0.8305820583,-0.0149542415,-0.1427134381,-0.746444539,0.9015077257,-0.1303579075,-0.5011992631,0.1008558972,-0.1883697344,0.2439504554,-0.5974701777,0.1293586119,-0.3954446196,-0.9305399347,0.1568892679,0.2755526963,0.8718724339,-0.8863733697,-0.7471637186,0.4366126582,-0.0487382191,-1.0028836528,0.4678812596,0.0750697708,-0.7762496723,-0.7543596091,-1.1158494619,-0.307949682,-0.9240680561,-0.4562326163,0.0747280874,0.3771874254,-1.0628336359,0.6504563985,-0.6507769752,-0.331612615,-0.4455006955,-0.8052916976,-0.9409490978,0.5197181829,0.578603901,-1.1427698695,-1.2002258694,-0.6743163649,-0.401095003,0.2819804664,-0.9562332593,0.403481514,-1.0878170382,0.0177453216,0.0813336957,-1.0771536742,-1.1135389678,0.3737576268,-0.4270866572,0.1287910673,0.5151894423,0.4070539087,-0.2640019781,0.5398334886,-0.6855096384,-0.4826597147,-0.161709907,-0.4881285565,-0.8200803268,0.649553049,-0.0790882818,0.527400567,-0.8246199777,-1.2066696865,0.0714870755,-1.2036370939,0.499122274,-0.2218853052,-0.6764150883,-0.9941315289,-0.7847269445,-0.1877101896,0.0540088052,-0.8166181618,-0.1855085143,-0.4245247146,0.6139626543,0.369847298,0.3127199128,0.1600613438,0.7285347377,-0.3787233754,0.7748906152,-0.9202835951,0.9155899565,-0.4799138288,-0.2317443358,0.7844541243,-0.7244120338,-0.4330528049,0.0418934452,-0.7520916133,-0.5263905294,-0.6123239247,0.9503891899,0.4749048423,-0.8957299877,0.7266689703,-0.7306032055,0.8530366486,-0.1787835158,-0.0782096786,-0.3362021403,0.8271153043,0.2757663862,-0.8025606936,0.1963928027,0.6914925597,-0.7115855888,-0.5471145215,0.4125329281,-0.2698694186,0.1713818963,-0.3154457099,0.9735496273,0.0769523753,0.9633035271,0.6629876839,0.762432071,0.5781610388,0.2511345069,-0.0568786723,-0.2848753319,-0.2582870879,0.6303968671,-0.5430926747,-0.8766128071,0.2633521052,-0.4709285061,-0.3544132482,0.8644686229,0.2905972363,-0.6981233604,0.4092455812,0.1255788404,0.3505481368,0.6627649536,0.1952224979,0.9214244142,0.9664720885,0.6566153859,-0.2450433112,-0.8687268358,0.8477965093,-0.0748068452,-0.8096730645,-0.2679564775,-0.2050062821,-0.9015250531,0.1461418441,-0.2196037763,0.7147101599,-0.1504085535,-0.6863962345,0.0749403007,0.6930716449,0.5673490405,0.8473999781,-0.2560579286,0.3403930902,-0.1241311305,-0.5645398013,0.3877106028,-0.5439731789,-0.2189979397,0.4714547612,0.1218080892,0.0377474408,-0.5963291033,0.6721964323,0.8420324136,0.2714678945,-0.8372067589,0.3646766682,0.8169500131,0.5381504659,0.4191801616,0.1521548866,-0.8398658133,0.2212051879,0.3064759664,0.2420191879,0.5737703285,-0.2010536659,0.7833579704,-0.3637029845,0.0625388929,-0.7121877119,-0.3442256685,0.2695165436,0.4812035121,0.3200338862,0.7612652161,-0.7847866042,0.2443472965,-0.2402120086,-0.0069272812,-0.8952408989,-0.8152183489,0.42002169,1.0140811178,-0.7044058121,0.5760156707,-0.7697296634,0.5227337506,-0.1378613008,-0.2629519581,0.7001221425,-0.4447361195,0.3997092641,-0.3940312452,-0.6718191908,-0.0108304484,0.246807375,0.3229257856,0.8972776931,0.2887158574,-0.5589411238,-0.3004596666,0.1525347531,0.2782572838,-0.8887952713,0.4132356049,0.9280243578,-0.5665580791,-0.8726419902,-0.8522444541,0.219609087,-0.1056111141,-0.3597944151,0.8320200975,-0.3154995602,-0.1698367398,0.7317169907,-0.2386456316,-0.6567096085,-0.5387111125,0.6755236388,0.4228460838,-0.4334194614,0.5276698413,-0.4200330079,-0.6339726276,0.056000096,0.3568513081,-0.1105500135,0.8419753245,0.6064512722,-0.694217129,0.5578746859,0.528181159,0.6091636569,0.6860852452,-0.5823430142,0.1371662941,-0.3377620126,-0.9396203545,0.9173743035,0.2423716971,-1.6648638068,-0.0310509666,-1.8388514053,-1.0414684272,-0.4223504306,-1.5339770067,-1.1037157519,-0.8875911287,-1.3324257956,-0.4149334303,-0.5763784184,-1.9461581905,0.4341903612,-0.9269986788,-1.4127498667,-0.363014773,-0.9007415673,-1.5327822683,-0.6574118859,-0.8601128727,0.0141263051,-0.4388369437,-1.134859575,-1.0567625039,-0.5258554928,-1.1326751305,-0.199746712,-0.3824336288,-1.097684806,-0.4836485899,-0.7498835051,-1.8060279201,-1.850851035,0.005486783,-1.3687670392,-1.2626544614,-0.0808233848,-1.0051330779,-1.3230954118,-0.3264459668,-0.732777412,-0.8144514913,-0.9968998318,-1.8481756528,-0.1132381586,-1.5166787826,-0.1648953012,-0.3021295661,-0.0734027217,-0.200978875,-1.4447642855,-0.2374816027,-0.0719532089,-1.8769089885,-1.6299883139,-0.9517251661,-0.1610452058,-0.2630990518,-1.03263977,-0.8410264834,-0.5401879037,-1.8572124251,-1.8389298041,-0.3197396037,-0.8849145756,-1.6754251264,-0.2953429975,-1.472679366,-1.826587429,-1.5190542646,-1.6501799282,-1.8962514124,-0.2374463867,-1.518969168,-1.5124211249,-0.2598913116,-1.829517784,-0.8489005601,-0.3407850765,-1.5508184672,-1.7403741183,-1.2678253056,-0.9054867317,-0.505061429,-1.4371478785,-0.0654366652,-0.2577260708,-1.780118414,-1.1966670987,-0.5903096785,-0.6608260696,-0.9568170669,-1.7397126651,0.0458333767,-0.8339924676,-1.8884115026,-1.552028914,-1.7804206167,-1.0725044297,-1.4675711596,-0.828190175,-0.1029077419,-0.3453165731,-0.8253150009,-0.4136277666,-1.5009635961,-0.7716426097,-0.565669688,-0.4730263876,-0.0521048648,-1.8614071502,-0.530555091,-0.2655213692,-1.1893459039,-0.3960773327,-0.2274443793,-0.8832422898,-0.2540444312,-0.1676724389,-1.308365367,-1.9304426526,-1.4809806393,0.8342191306,-0.5554603382,-0.8140794674,-0.8699659685,-0.3716587925,-0.7269328115,0.3134765946,-0.7614033416,0.4278243668,0.933356242,0.5764623384,-0.4368897894,-0.6555177606,-0.2148249338,0.9415639217,-0.2823098564,-0.1033708327,-0.62058769,-0.3481496581,0.6782593692,-0.4985822837,-0.2789528714,0.3639660458,-0.2223469443,0.7219950427,0.5075814286,-0.1443623448,-0.3033755174,0.7810709382,0.1129668627,0.2239384038,0.8254352155,0.5684741619,0.0956868808,0.2522548059,-0.963216296,0.118767991,-0.4309995001,0.6641315834,0.6419142335,0.0732813543,-0.3656351804,-0.2936011997,-0.3967889868,-0.0534370887,-0.8716821885,-0.1122780841,0.9522321881,-0.9792595571,0.0667933741,-0.4301742015,0.4570275542,-0.9001330257,0.099639846,0.4004213792,0.8227681062,-0.8585826235,-0.3169113584,0.5385091714,-0.1832380523,0.0163467629,-1.1250253168,-0.1692222025,-0.7719059136,-0.3157685134,-0.0306530598,-1.1480904972,0.1887984194,-0.5077307558,-1.3846820797,9.8047149247,-0.3357062405,-0.4298881576,-0.118956526,-0.5431144383,-0.9509778932,-0.118305623,-1.4117717027,-0.7981643697,0.1079915946,-0.7691159495,-1.3826366843,-1.5534061427,-1.3338174717,-0.404535225,-1.0996194874,-1.2810169721,-0.1986525054,-1.5827954972,-0.0066404713,-0.9788134912,-1.2060766485,-1.3585888664,0.2778811301,-0.2603316523,-1.200951606,-1.4595474497,-1.3324747177,-0.4340733312,-1.1956132067,-1.1718795038,-2.4170743578,0.1740075535,-0.1672697525,-0.4770969781,-0.7466925981,-0.5053753681,0.243520847,-1.1438266495,-0.0269575911,-0.2417845344,-0.5352284041,-0.6726512453,0.004868132,-1.6046878531,-1.5426932842,-1.2866670599,0.1039189526,-1.0609283694,-1.2787079949,-0.1296414675,-1.0960365082,0.7128236209,1.0157323104,1.4332204388,1.8205801454,0.0834166787,0.9317657578,-0.3686738393,1.2511352229,0.4539802588,2.1512135548,-0.5439043414,0.801411412,0.0014839732,0.4913671747,-0.3102357429,-0.6635183023,0.7948304134,1.8487638105,-0.4176914637,9.1886189392,1.7052420369,0.3722145972,0.5020201991,1.2009816313,1.5888134123,-0.350906754,-0.2765980392,0.7017738418,0.2541097694,0.0806593834,-0.6164364292,-0.9000266011,1.5371232554,-0.7304978288,-0.5636002357,-0.1751832897,0.5618840255,0.5795067239,0.0105069029,0.9707600521,0.8227244812,2.4235323886,5.873861356,1.8999690926,0.7469409796,-0.602482611,1.2187807521,-0.5013851327,-0.0974565545,-0.015383574,0.1173076446,0.4677213161,0.6641202444,1.6879025751,0.5899711972,0.9667514258,0.7819913169,0.1296234507,1.9384697532,1.1418914604,-0.2222882956,1.7898340698,1.2173427705,2.1524193395,1.1696172246,1.9475304214,0.3451299777,1.0384417347,1.479903312,92.0637405924,-653.266834045,1.4357251286,-0.5561071726,57.5559610501,1.4081957319,1.4783974227,4.2045096274,-44.6078407535,2.8878232576,8.0799167017,2.9540230505,13.4068985185,4.993706131,1.3221718695,7.2602716474,2.2924513054,1.2559576163,1.5884888366,0.7201387215,1.4248253291,1.5043243331,4.9449308999,1.3106305092,1.3849547231,0.5969725999,-16.111012794,-15.7928045221,0.4587921042,2.4494667642,-45.1795981954,2.0408124466,0.9675641308,1.6339405874,1.5833304962,3.3369963871,3.8260218932,-6.3606382987,0.8390112782,7.2001229315,2.358239921,1.332433842,1.2054769767,0.9770318797,0.044538166,1.9878207352,2.3229994456,0.7033873993,1.8408185107,1.0622711112,0.7942937789,3.7728638708,1.879989512,0.3794299181,-0.2678609163,-0.5267042899,0.4742214613,-0.5690473369,-0.6159490678,0.2961891607,-0.9489722092,-0.0799453267,-0.2916050138,-0.9806073615,0.0699499636,0.8210648515,-0.5849525004,-0.2185685587,-0.6834506423,-0.1668479364,0.4877688976,0.9653372554,0.3851574374,0.9754092464,-0.1873036713,0.7503449618,0.0307644522,-0.1684528746,-0.2909529922,-0.9218720012,0.2845386171,-0.0726517187,-0.8577428189,-0.5234259118,0.22334324,0.8880308075,-0.4792963178,-0.7789706985,0.1429422184,-1.0184054914,0.6462421218,-0.6151342644,-0.3417992427,0.6819050634,0.775068245,0.785426349,-0.4248498016,-0.4589709416,-0.6715037977,-0.1545807643,0.5585491915,-0.1638690326,-0.2574998214,-0.0928138097,0.7503994135,0.6618340166,-0.8880778178,-0.2411885321,-0.9927534197,-0.5461646281,-1.0265914368,0.4147379789,0.8148706512,-0.7853578041,0.0522238073,0.572348742,0.4319431197,-0.0807353645,-0.9265248116,0.5281530164,-0.7684330221,-0.7117290426,0.0180731548,6.1212051972,-0.9067719228,-1.0840090103,1.9425961964,-0.1907380515,0.5943333944,-0.2123923098,0.2767489537,0.977880595,-0.0230950438,0.9764970923,1.0432711885,3.7328804903,-0.2314263827,0.1764468558,-0.5396205615,-0.67004853,0.8750196902,-0.7902195585,0.6154236691,0.5481264311,-0.3645488152,-0.8341510763,0.4686403318,-0.3253409608,0.0309742242,-0.7989155132,-0.2577169411,7.2268673918,-0.6831803274,0.6919114764,-0.1567219068,0.2280162744,0.888294612,-0.4855025564,-0.8994911091,2.9269770595,-0.6190219719,-0.0827471816,-0.2529096237,-0.9381613916,-0.1750571707,-1.0364477359,-0.0286407699,0.5783212648,-0.3908586231,0.5666769309,0.5612914972,1.1335080391,0.4729509805,-0.6452197827,0.6363723609,0.3465791342,0.3072005999,0.17925054,0.7536617101,-0.0674418944,0.8924171899,0.8531418304,0.8208493848,0.4288659665,0.9888648635,0.1192424806,0.1062392923,-1.0529049338,0.7376739941,0.5023240418,-0.8267783109,-0.2666144688,-0.2453768223,-0.7598499449,-0.4876051555,-0.1071857335,-0.5331618421,0.6802203579,-0.1865421097,0.2739104096,-0.561071635,0.4719754072,1.0167596362,0.4745108351,-0.7066795371,-0.7606032863,0.0611946666,-0.3072968939,-0.4414652362,0.146715935,-0.5562457622,0.9333458114,-0.7531881031,0.260495125,-0.5844112601,-0.6887022443,-0.5174059202,-0.8091039061,-0.028191483,-0.7835960264,0.1002552932,0.2909734265,-0.0347458086,-0.2460024832,0.4356882499,0.0897826623,0.9264845188,0.0274728414,0.9707004268,0.9823792937,0.9087730831,-0.4577420408,0.2766032837,0.7351494642,-0.9075592421,-0.7265724041,-1.0918310458,-0.7834599541,-1.0101116645,0.1928605919,-0.3237906994,0.5448251456,0.1485730692,-1.0227933672,0.5626299117,0.3546398373,0.2859097001,-0.1303277599,1.4464824078,-0.9095018228,-1.1732227562,0.0366159833,0.0565510914,0.5387671485,0.0152059634,0.017518948,-0.376641311,-0.4214371547,-0.1326593097,-0.4839061623,-0.5426161883,0.0196214026,-0.3024517363,0.4790312795,-0.1887482364,0.5212914536,-0.1374849477,-0.6421434878,-0.7196017786,0.405302247,-0.3607713817,0.0518320396,-0.4343294387,0.9303798093,-0.8758893776,-0.36420557,-0.474375105,-0.5873619445,-1.1358886467,-0.37158697,-1.1226014073,-0.8462539039,0.1080751162,-0.2702637368,-0.0035377845,-0.429305489,0.0065438154,-0.9303823353,0.139457401,-0.0333190016,0.3764075998,-0.1943145855,-0.3279264618,-1.1056041387,0.4722313921,0.2475088262,0.144898166,-0.9696843853,0.1674525262,0.5572240835,0.6875779574,0.1023340945,0.0437772775,-0.180306517,-0.4547996285,-0.6192902044,0.4611533982,0.6806241729,1.0869451315,0.8641530161,0.2735377918,0.2115138048,0.7445091444,-0.5466656236,-0.7063364507,0.2224618635,0.9192798981,-0.6873717621,-0.2452496993,0.1085823206,0.9430848394,-0.1328896585,-0.0992009733,-0.5187490394,-0.8653925301,0.5066312621,-0.0075578591,0.2173744645,0.5119076075,-0.3822238676,7.0545813386,3.2209495509,-0.4982684191,0.9119545136,-3.4376221701,-0.2641786051,0.9556341051,0.1375859158,-0.4419893553,0.5980680318,0.2682279612,-0.7407368777,-0.1088491229,-0.0088725493,1.031607592,0.9372879118,1.1038291189,1.3117115714,0.1966423952,-0.2690075636,0.7580138516,0.9029749515,0.9415557601,1.7575211017,0.3828089593,0.5331280744,0.2072247208,-2.4511461546,0.7099857917,-0.0971928453,-0.6462301741,0.177484783,-0.2183549789,-0.6676642783,1.2703637292,1.1792720449,1.0070200121,-0.4123154418,0.2891475989,0.7802605882,-0.4080319869,0.8885635842,0.9639797878,2.7751599506,2.2122374871,7.7866414667,10.7763295278,-6.1540944567,0.9985931858,0.352146,-0.2318076898,0.4762909122,-0.9834563466,-0.7290094686,0.4185230909,-0.973102439,0.9938472965,-0.8697027462,0.4189803633,1.2965789073,2.0735212353,0.421699154,0.6117070157,0.9347795086,0.6345714519,1.3625006223,0.3305019071,0.3234784154,1.2569417827,1.9226264311,3.8581025017,-1.4429433372,0.5184158702,0.0783722894,0.0763206285,0.0139786502,0.7767762055,1.1678910891,0.5312009943,0.3324922169,1.6697822681,1.8438612542,0.7150649147,-0.1515511132,0.1300654367,0.5792097343,1.0172505973,-0.1760037191,0.0817674944,-0.3203978107,1.3219873461,1.625901976,9.7919819893,-0.5635119971,-0.0151893261,0.4133792728,-0.6019529325,-0.3149431516,0.791887477,-0.5910132691,0.9400927465,-0.7404575882,1.0151689126,-0.1532623391,-0.0033430954,0.2920775355,0.5352700038,-0.3993792495,-0.0581260022,-0.9135815733,0.4579959442,0.9236865757,0.4005452202,0.7696331451,0.4900824479,0.6777844263,-0.318327559,0.7460255692,-0.9066337701,-3.6298557598,-0.6396202084,-0.2226209388,-0.1997606294,0.5313418416,-0.8700440953,1.1019395576,1.0524804771,0.5734075673,1.0966957844,0.8405881455,-40.6789872909,-2.1387448414,-0.4168270856,-0.6408545547,-0.2034656824,-0.4830186759,0.5889846573,0.6782812856,0.8742962777,1.2306090344,2.5096698609,-0.3098864126,-49.0011222633,-147.0464642698,-6.7391687616,0.7750313283,-0.7170180974,-0.7999955076,-1.8185072933,-0.6933384812,-1.3411702422,-0.2204814183,0.8124131262,0.1820238807,-0.8523766673,-0.5638158752,-0.7931089533,-0.1393614448,0.6668558175,-0.7434903131,-0.7914625889,-1.14629467,5.5274304782,0.1345800697,-0.7039641967,-0.294004444,-0.971496031,-0.6385694658,-0.9617905351,0.2913665214,0.5326764292,0.0848050999,0.102343335,-0.9156767901,-0.5580732647,-0.9889549069,-0.007993913,-1.842364053,-1.5655196226,-0.0907441641,-1.2597547827,-0.8528178677,-0.7222879673,-1.657389638,-0.4696255834,-13.2554380557,-0.7725465694,-8.090786778,-1.0539114905,-1.8965678274,-0.5737909479,-1.3147393244,-0.2976224844,-0.8069755034,-0.8121963757,-1.1315052343,-0.3878550196,0.7336641965,-0.0588184252,-0.1685618589,0.2419880732,-0.0385986316,0.9134319487,0.9675706556,0.4189269904,0.1582441028,-0.7021827241,-2.706192901,-0.1993578575,-0.5545871733,0.1189006172,0.3404747133,-0.8420684026,-0.2288355361,0.7699284959,0.3156630588,-0.342228232,-0.2371587604,-0.7127821739,0.3947073045,-0.9532701515,-0.000697003,-0.0188201978,-0.0703816922,0.9182876612,-0.073320153,0.1195401745,0.4120298257,1.0779739372,0.7503201179,0.73019133,-0.7111950831,-0.9323696384,0.523455363,0.5382943898,0.6262361674,-0.2463185221,0.2263945241,0.3421498047,-0.7924027648,0.705176314,0.4457668338,-0.1350841934,0.6337039301,0.7418722575,0.316039128,-0.855551065,0.2494233692,-1.4089975236,-1.3711443668,0.2812063333,-0.6042246995,-1.3735233644,0.7027219099,1.8374933599,-1.1908950654,-0.4142481783,-0.512676614,-0.0024205538,-0.9320851948,-0.7658851361,-1.1264012282,-0.1956091458,0.1126008976,0.1884746439,-0.348439812,0.5955847171,-0.3380311276,0.7586639979,-0.1857839518,-0.193853939,0.019756109,-0.821540251,0.0068082665,-0.0572723084,0.6967976655,0.5155949013,-0.6908916439,-0.2015861243,-0.2011193005,-0.8727153979,-0.8732139212,-0.2029986164,-0.9259001505,-0.6122495689,-0.6983254902,-0.2856714155,0.697827974,0.3195188477,0.6939752312,-0.856936787,-0.1408476108,-0.0632765051,0.5671083926,0.5965265673,0.3464880631,0.3738456151,0.5739052114,-0.4036236227,-0.3893865788,0.9575295747,-1.1092685226,-0.8815834538,0.4403701992,0.0434422645,-0.2549578372,-0.5804105556,-0.3614858723,0.7947268464,-0.0139633623,0.5518658699,0.2812058809,-0.7254075215,-0.7127566223,-0.0136830316,-0.3848411125,-0.2162667853,0.1135451004,0.3129166032,0.2236291791,0.1528044748,0.4860907792,-4.122585956,-0.1674016464,-0.5959345442,1.6048833043,-1.2931124765,-0.9665400712,-0.868784469,-1.1663649688,0.4095357036,0.1947060944,-0.4518500624,0.4109512744,0.1405682702,-0.1996425246,-0.3641717069,0.3376711189,1.2893359583,-0.0139425402,-0.1853163908,-0.2890568549,0.7099810336,-0.9309992241,-0.3957494059,0.2267457012,-1.0837591787,-0.941965259,-0.3249458273,6.6417042049,0.3383281345,-0.3445406582,-1.0580313622,-0.0407729251,0.3130371636,-0.750152271,-0.3101481158,-0.1090435071,-0.0433318743,0.9127269063,0.5091533857,-0.9747090209
   -0.9448292549,0.4007893165,0.5562580434,-0.7980229401,0.309045065,0.7799887624,0.4253812218,1.1929220411,-0.1861442254,-1.2706193094,0.1740554076,-0.9211528201,0.4761365984,0.5817446671,0.7827013301,-0.1060941195,-0.3123113365,-0.6789267789,0.4988201046,-1.0096614042,-0.9055004196,-1.0106953479,-1.3261613275,-1.035705826,-1.3783432533,-1.3581942172,-1.4520061663,-0.9875642953,-0.4506849216,-0.1316956455,0.7439075992,0.1520957891,-1.3103734752,-0.577358034,-0.3594998574,-0.7044293126,0.6123858508,-1.1302159983,0.5730812097,0.0816093942,-0.6776005106,-0.6155317203,-0.2507405233,-0.6805679693,-0.6087296641,-0.3020601168,0.6191753732,-1.0459238593,-1.0972815336,0.8652508631,-0.3148945731,0.7623601657,-0.9950072315,0.7982608125,0.7120701712,-0.7334851434,-0.4527175157,-0.6251889971,0.7404395126,0.8567538121,-0.8432441385,0.6044639558,0.4140018108,0.1880923302,-0.3949756106,0.3219821447,-0.2594800478,0.9226148049,0.3106777254,-0.2880781856,-0.9072391891,-1.0677643595,0.4412718036,0.208758248,-1.0068848509,0.6029026639,0.6548392814,-0.0946693156,-0.096675332,0.0252586465,-0.6983431943,-0.8184016498,0.481533131,-0.4440030393,-0.5803030854,-0.2871410306,-0.3527849027,-0.5258648271,-0.3322998085,0.2870640036,0.080747101,-0.8868752715,-0.368308048,-0.6147982626,-0.9061873227,0.7351800441,0.8007667638,0.6753954638,1.0328452971,1.0058741168,-0.0074396113,0.4506858032,0.3308856852,-0.2273311467,0.2104780322,0.1967748199,-0.0520283726,0.7382687154,-0.2719091674,-0.5380644591,-0.3943134488,-0.7517902525,0.5510853905,0.4472745008,1.0327153402,0.6470663241,-0.662250437,0.7853974405,0.8619270569,0.5765985498,-0.8001510864,-0.4766293416,-1.056173703,0.6768883693,-0.0675624035,0.9256050526,0.6058144411,-0.6184560795,-0.8188228481,-0.4669568821,0.8798651194,0.8654559798,-0.0422885144,-0.6443765621,0.9913749799,0.1276851017,0.9054968477,0.0474707583,-0.1926246182,-0.2959516083,0.2004127347,0.3862595982,0.1794015424,-0.1827694699,-0.7080058547,17.1271329264,-0.2852599848,5.3529599011,-0.6464107917,0.2699280454,-0.4581516138,-0.2988881569,-0.3738742063,0.2178299389,0.8414158118,0.3226378598,0.2149694258,0.0891063961,-0.847358137,-0.062990831,0.5748114741,0.3664709126,-0.260973174,-0.7481851235,0.1209978081,0.1226621987,0.9394011164,-0.1623749403,0.2972211305,0.0169381063,-0.9221554208,0.3957596288,-0.2781141673,0.2169259945,0.14728767,0.6334253282,-0.5542764861,0.1516352773,0.3778715221,-0.2072636096,0.6467219776,2.7499576363,0.2571100667,0.2004753589,0.8544378006,-0.7794521079,-0.1899547253,-0.3751718114,0.2802360992,0.2915353331,0.0266913222,15.0873563029,-0.6185366429,0.8418085277,1.2743241543,0.5395717322,0.7962364648,-0.0347341013,-1.061935371,-0.6901538135,-0.0816419558,-0.0484528965,0.8079621312,0.9124191726,0.9365145646,0.8530173494,0.1293516027,0.5252735563,-0.4489078819,0.0601048769,-0.5869594486,0.3674771494,0.4785774523,-0.2425393241,-0.372018924,-0.1450913511,-0.6380073028,-0.0535296965,0.3844103689,-0.4653589883,-0.199713805,0.630544938,-0.6497591111,0.7509568053,-0.4845498252,-0.8545327047,-0.2201154472,-0.0506572532,0.1073489884,0.5046527033,0.6382968682,-0.6820010808,0.6988181682,0.0459484583,-0.3659169591,-0.4864666717,-0.0891327401,-1.000313401,-0.1084190857,0.3290453005,-0.8567202681,0.2790017591,0.7121804595,0.6908512837,0.5220717088,0.531962076,-0.4765360548,-0.0781678162,0.0970248847,-0.2489761736,-0.1581728396,-0.7340212939,0.4469068097,-0.5510656037,-0.5123037472,-0.0279294387,-0.2505405194,-0.1975062492,-0.3092185699,0.0073999419,-0.7169793304,0.8934065173,0.7856971388,-0.1397269922,-0.2602571025,-0.3415249571,-0.1697916259,0.1711700668,0.2761693975,0.2485064001,0.510408237,0.4305077436,-0.5923520189,-0.684714793,0.0557163639,-1.8096983931,-3.5739365019,-2.2200863304,-1.5391081592,-0.5172331531,-1.1506072783,-0.3563135157,-0.5445515725,-1.1111474488,0.3475020394,-1.7195177355,-1.9096266299,-5.4252350515,-0.9669231547,0.7255421234,-0.8221166509,-0.0557224337,-0.5396088814,0.4278071419,0.2048578309,0.4717378525,0.2902223358,-0.3310587693,0.4657581574,1.0098589684,0.8939960612,-0.0092289862,0.9131126924,0.5042447685,0.2062395604,0.3285107848,-0.8116908066,0.4807751083,-0.3497285636,-1.0412858056,-0.2735983318,-1.0683976297,-1.0517450892,0.1648643444,-0.6117752503,-0.7745382171,0.0171085328,0.3382394048,-0.9685681954,0.1676735719,-0.7838185184,-0.2717577533,0.5033921087,1.1404868337,-0.4054923708,-0.6182523437,-0.0601710907,0.1767511484,0.0131882875,-0.4771605103,0.3417129493,1.0441736301,-0.3336972052,0.1667747219,0.2234429471,-0.8794138524,-0.2499172933,-0.78499511,-0.1796263169,-0.7687316698,0.7907044173,0.5601427147,0.0910219476,0.4734449709,-1.3506804221,-0.1320678759,-0.4300719468,-0.8951412294,0.0814342665,-0.9296049679,-0.0229970503,-0.6662601713,-1.1761708799,0.1239133207,-4.3633744312,-8.8497886046,-2.3720193638,-0.3581070248,-1.1794178834,-0.8582647424,-0.0477202245,0.5200621037,-0.4291819538,0.2349981779,-0.9803210156,-0.3514412446,0.313445163,-0.0865875318,-1.0938511005,0.010083574,0.8415469176,0.4433865022,-0.8727913582,-1.0038931759,-0.0603017395,0.506951126,-0.0574577794,-0.4962178889,-0.6081292702,-0.3173912703,-0.5874115947,0.1115036525,-0.5477448153,-0.5975313331,-0.8898212904,0.270541093,0.5163867664,-0.831426962,-0.0360382535,-2.8674890745,0.3399222568,-0.0813558734,0.352317081,0.4330101487,0.3458525988,0.5106946275,0.7384101442,-0.1504164132,0.8072502086,-0.3670240097,0.1235808841,0.8809890194,0.439793285,-0.0218719323,-0.4725609554,-0.9453902337,-0.8384934573,-0.6054186988,0.8498577418,-2.143594662,-0.1294696547,-0.6810855349,-0.4055374729,-0.707648761,-0.2527021599,0.0690159975,0.4108212219,0.5348946063,0.2597402529,-0.5920236436,-0.4406845515,-1.1043519647,-1.0558627129,-0.9290805294,-1.5334739609,-1.0178999151,-0.2780326926,-0.7948698371,0.2849437809,-0.1220742781,0.5408718681,-0.7336163109,0.7049977068,-0.3993751387,-0.2124250329,-1.1370863059,-0.1367384917,0.386892827,0.5457695871,0.4012657566,0.0652477323,1.1204603742,0.6651333109,0.7320216513,-54.0619522169,-1.1535653454,-0.2250154053,-0.0458461883,-0.6023838704,-0.3341885468,-5.1398533313,-4.2747138399,-4.2178809733,-5.0693149723,-10.5291577407,-2.172177602,-0.2839856952,0.1050652567,-0.1765763268,-0.5199477196,-0.9509570472,-1.4054832045,-1.3026718535,-0.44814294,-1.2643874288,-1.2566587495,-0.0313295052,0.4832032445,0.496055123,-1.0022566998,-0.1636752584,0.5072836036,-0.1470618628,0.0774905309,-1.2389089832,-1.212398603,-0.7757586296,-0.6560358886,-0.6053367614,-0.7306510616,-2.8617083006,-0.1401106776,-2.2090055606,-2.3439408887,-3.0333708147,-1.1990534117,-1.4595881592,-0.3506511104,-0.5186191861,-0.3471098808,-2.0022550619,-5.3155564249,-1.3079377704,0.4307407024,0.4656261511,-0.163240224,-2.1288452397,-1.8238769775,-1.8713885562,-2.4261908509,-3.3166040837,-0.8079629515,0.1205324136,0.7852011181,0.9820540484,-0.1610884224,0.0792828858,-0.5857206947,0.1196369971,0.2196521092,0.4155352975,-0.5991649374,-0.0847908647,0.721820642,0.3415048136,0.3142667494,0.7666856593,-0.2094763758,-0.1827895772,-0.1994897476,-0.2750435917,-0.0340450183,0.7448928671,-0.8513179125,0.8733053426,-0.4556797967,-0.4912520837,0.0000235115,0.7056418642,0.3174465228,0.1890807568,-0.4246870134,-0.8490392233,0.2010813201,-0.431640848,0.9414398828,-0.5783952293,0.4165056535,-1.3871647514,-6.0550200579,-1.7735571515,-0.9917055956,0.1048448508,0.2499214852,-0.9662376678,-0.7332847625,0.2071123221,-0.3493485774,-0.0741103772,-0.4368973045,-0.3746621121,1.0407693937,0.5741733269,0.7675718335,0.2092200126,0.0674304168,0.716262185,-0.0065443839,-8.2517455593,0.4161178154,0.9704920642,0.8488700628,0.5182327293,-0.3076089385,-0.6388667432,0.0484450855,-0.2405080162,-0.5898795182,-0.2102521184,0.5881200084,0.2783387619,-0.4576485931,0.5882639752,0.6842775643,-0.3392011401,-0.192855456,0.4782682382,0.322039165,0.1666185732,-0.655121345,-0.2055538969,-0.3476677501,0.8321932562,0.7080641286,0.0186333045,0.3762295857,-0.9074357252,0.5756927046,-0.3827944532,-0.0484562208,-0.0118038779,-0.9458648329,0.7427724052,-0.9905588769,0.3554952915,0.095857682,-0.1913933628,0.2426012906,0.9752107256,1.4646560448,-0.178523201,-0.43856583,-0.2305324249,-0.2558906128,-13.379658571,-0.311803783,1.7382587456,0.5033281891,0.7547736125,-0.4906631106,0.9188231898,0.5829248001,0.923413183,-0.0816857305,-0.7546028403,0.0431399747,0.8172180724,0.4184579041,0.2448214181,-1.219762596,-0.5119974241,0.1600784611,-0.9166832326,-1.1282462863,0.0121076528,-1.2530766026,-0.9422310554,-1.0562844438,2.4737982778,-1.0058490891,0.6362425806,-0.3697863068,-0.1257423723,-0.4863321848,0.5684063733,0.0571510635,-0.0427627872,0.6639888017,0.5870422504,-1.0298838638,-0.5604478266,-0.9714048391,-0.0514112637,0.3012120179,0.5497173926,-1.2252612088,-0.2260117597,-0.8353575124,-0.1407681502,-0.848144205,-0.8446304644,1.0440418921,-0.0416701714,-1.8931649216,-3.3440025976,-2.2509702946,-0.6734023831,-0.552282791,-0.9080729113,0.5712406083,0.2024387955,-0.9270297018,0.160580097,0.737406455,0.7605069462,-0.7972092382,0.6042133192,-0.0318679836,-0.4658959519,-0.6625711145,0.5006241841,0.758112676,-0.0020422529,-0.9697150785,-1.3375181676,0.9132134888,0.6163217973,0.0781875684,0.7454422392,-0.7556742841,0.9871496471,0.9587422038,-0.6179288856,-0.866890144,-0.5337199486,0.4506093879,0.558515328,-0.2184772084,-0.5508546657,-0.1880601992,0.1271383806,-0.7716012047,-1.0531574265,-0.4934270403,0.7270835027,-0.2294757768,-0.8638156975,0.2521054825,-0.5100391489,-1.1722253404,-0.8333135879,0.2979958673,-0.8567745029,-0.8678525941,-0.4225926051,0.3098424689,0.8567707266,-0.9451429357,-0.1730273965,0.6213058901,-0.7712116994,-0.6709846245,0.655950018,-0.4399823647,-0.7569316905,-0.7089390439,0.987396571,0.5238486271,-0.8807535333,-0.4817511291,-0.4434647671,0.4544039718,0.9063784158,1.8352461891,0.0670243976,-0.5214162591,-0.2796534836,-0.8768212814,-0.1051318171,-0.3416075619,0.367386266,-0.923666934,2.1147333293,0.8636247838,1.8180322505,0.6930590536,1.3952242065,0.6146904268,1.9398970064,2.1034691931,1.1350879111,2.29991935,3.432957022,3.3663498681,0.9997236391,-7.5465751033,-28.2751595735,-5.8856058438,-0.1950579945,0.2624656961,0.4349367372,0.4651107587,1.5826110474,0.0240561033,2.5720459478,-0.8245513646,-0.3441622313,0.5307980783,0.7191072657,-0.5207900605,0.3621837064,-0.1656854092,-0.371318427,0.6595669166,0.37347822,-0.6603363572,-0.5271269856,-0.1149989375,-0.2479930035,-0.8902225245,0.8438246588,0.3208829365,0.1244070111,-0.9746134467,0.0336994752,-0.4739778734,0.5558958834,-0.066058237,-0.8525770313,0.7512839416,-0.6206728748,0.4739481927,0.0189389704,0.5414782122,-0.2319335508,0.3273893266,-0.0133014794,0.2691630726,-0.9599355655,-0.2268211795,-0.1890524976,0.8202494777,0.3357091966,-0.3681166217,0.3740904634,0.895698706,-0.1065436334,0.9502866622,-0.1059411702,-0.6775338001,0.5848941665,-0.7500523037,0.1123835784,0.0261094972,0.2194542274,0.2638697215,0.0353626271,0.0359937189,0.0745204327,-0.0729092889,-0.6587077396,-0.8845568259,-0.8049616707,0.9607646938,1.1204969922,0.4150229457,-0.8500547807,0.2031497896,0.6282591356,-0.5289817832,-0.7816813565,-0.867057551,0.8092148586,0.5294898782,0.2282494683,-0.0388013763,0.1435490688,-0.0971305264,-0.3277119556,0.3785350908,1.1262690619,-0.7427844659,0.0893910033,0.713031362,0.0640721076,0.1347765308,1.1763594704,0.876257161,0.5267785599,-0.4635626628,0.7398747059,-0.769033271,-0.8736198513,-0.2357274465,0.2178112976,0.7797388559,-0.296663488,0.8785179157,0.9839324995,-0.414374951,0.7706218877,0.3648984229,0.2160712219,-0.7656522711,0.0229248205,-0.1669587364,-0.5431688436,-1.1219058659,0.5374794321,0.7795785322,1.8893779554,3.1163592129,-0.1631981557,0.8366499737,0.0956791587,-0.0231921856,0.0407320602,0.9816588553,-0.5336365455,-0.0037305308,0.0291063825,0.2778960693,-0.8770269187,-1.0817966,0.8007267413,-0.0968863207,0.7121667733,-1.0362593857,0.7565031098,-0.4854333373,-0.6165120157,-0.4155201289,0.9380531133,-1.852324803,-0.0495131932,-0.5383633985,0.694227926,0.2414603479,-0.8588416454,0.4052087126,-0.3985316045,-0.6510119175,-0.2052092099,0.6977480999,-0.5854034929,0.6662752493,-0.0720816819,0.4407437567,0.1081212131,-0.7444574044,0.390427328,0.6379315482,-0.4283168422,0.3007915676,-1.361484695,-0.8140781574,0.5657765853,0.8217704305,0.4914639385,0.570425998,-0.1207739962,-0.7313545083,0.6217773576,-0.4279885724,0.3710256536,0.4191414589,1.6661844953,0.9805151555,-0.7694231117,-1.1015176941,-0.9682961061,-0.5137376466,-0.1655513448,-0.3953065046,-0.9011864587,3.0155039289,15.2415715017,22.8241224503,1.481210383,-15.155566452,-8.3326109949,-4.6984571857,0.153150886,2.3560174773,0.3711244747,1.4720485979,1.8468599564,1.3359654325,-0.2975520615,0.8374272082,0.0956326854,0.1418414529,0.6108834931,-0.3015413246,0.0634772998,-0.2890628864,-0.2317268586,-0.6872141839,0.306994862,-0.4765348638,-0.0245814981,0.1679248075,0.772081849,2.6379456403,0.3050907457,-0.1184359087,-0.4990068591,0.8297416646,0.5438312576,0.5139552175,0.844494532,0.3886414708,0.9261556789,-0.2098286254,-0.4084016333,0.7614780776,0.7295718058,-0.1469011043,-0.9602834816,0.4477822679,-0.1980522781,-0.8114703615,0.3475406652,1.184075764,-0.9080690163,-0.6422939812,0.2723194301,-0.7550881812,-0.7327200868,0.2401523766,0.4736690949,0.9050230137,-0.8955294612,0.8568182222,-0.7808685331
##end
biasActivation=1,1,1,1,1
[BASIC:ACTIVATION]
"org.encog.engine.network.activation.ActivationTANH"
"org.encog.engine.network.activation.ActivationSigmoid"
"org.encog.engine.network.activation.ActivationSigmoid"
"org.encog.engine.network.activation.ActivationSigmoid"
"org.encog.engine.network.activation.ActivationLinear"
