encog,BasicNetwork,java,3.3.0,1,1480414877537
[BASIC]
[BASIC:PARAMS]
[BASIC:NETWORK]
beginTraining=0
connectionLimit=0
contextTargetOffset=0,0,0
contextTargetSize=0,0,0
endTraining=2
hasContext=f
inputCount=2
layerCounts=2,11,3
layerFeedCounts=1,10,2
layerContextCount=0,0,0
layerIndex=0,2,13
output=0,1,0,0,0,0,0,0,0,0,0,0,1,0,0,1
outputCount=1
weightIndex=0,11,41
weights=-0.5934455603,-0.3914720493,0.8499373181,-0.3808075516,-0.3261333624,-0.0410669442,1.5865983832,0.4370572723,-0.6337636921,0.184968479,-0.2534676353,16.738576517,28.0852265662,-2.773172493,3.5433519405,15.3739719441,0.5768122138,8568.4593657523,-157.5127538772,1158.3834837841,164.7316165413,91.137449701,-18.8925112124,-2806.8423444644,1425.696642723,1560.3056135641,-27.3442184487,9878.9107521448,1831.2659449349,7.6106089855,14.9793078857,0.666398444,17192.8700720784,14068.1606873934,780.9103611851,620.578556717,382.2465191249,-2.5774941863,8190.9310898299,-574.3292371899,1433.2512200967
biasActivation=1,1,1
[BASIC:ACTIVATION]
"org.encog.engine.network.activation.ActivationTANH"
"org.encog.engine.network.activation.ActivationSigmoid"
"org.encog.engine.network.activation.ActivationLinear"
