encog,BasicNetwork,java,3.3.0,1,1480423462829
[BASIC]
[BASIC:PARAMS]
[BASIC:NETWORK]
beginTraining=0
connectionLimit=0
contextTargetOffset=0,0,0
contextTargetSize=0,0,0
endTraining=2
hasContext=f
inputCount=2
layerCounts=2,11,3
layerFeedCounts=1,10,2
layerContextCount=0,0,0
layerIndex=0,2,13
output=0,1,0,0,0,0,0,0,0,0,0,0,1,0,0,1
outputCount=1
weightIndex=0,11,41
weights=-0.5522598771,0.3872633993,0.422394399,0.3200271357,-0.0463963612,-0.0590065173,0.3503144886,-0.0309203256,0.591182459,0.2004541677,-0.5923183927,4.1422084753,0.7641688273,0.4229267298,4699.805564517,4885.1546240747,1041.0372518355,6771.1270275556,-12815.3124411634,1681.0945182556,7358.2821158829,-13560.0418150693,1462.0755261243,15.396139326,-53.7974119002,-19.1551211181,-1058.1700082505,1.7092529763,-0.0194288141,6040.7809532096,6508.1358372224,479.6453803295,64.8545838766,421.8444873997,-8.5856820409,994.8836636143,-3951.8011892417,3952.8051386628,5473.3994168944,5972.1314084689,1139.9999433502
biasActivation=1,1,1
[BASIC:ACTIVATION]
"org.encog.engine.network.activation.ActivationTANH"
"org.encog.engine.network.activation.ActivationSigmoid"
"org.encog.engine.network.activation.ActivationLinear"
